가 0.0016460357001051307 -0.026120085269212723 -0.04929746314883232 -0.030851028859615326 -0.03857073932886124 -0.05137565732002258 0.08192671090364456 -0.011824578046798706 -0.017021723091602325 -0.0027430907357484102 0.06006442382931709 0.006974983029067516 0.003026729915291071 -0.046560872346162796 -0.0011874152114614844 0.06415467709302902 0.06866583973169327 0.016088852658867836 0.037466127425432205 -0.012381511740386486 0.05932500958442688 0.00241068541072309 0.0528397336602211 0.011987892910838127 -0.0010942226508632302 -0.032473355531692505 0.030764738097786903 0.005577488336712122 0.041503749787807465 0.044339101761579514 -0.0107717365026474 0.014566980302333832 0.03340834751725197 0.02769325114786625 -0.06515401601791382 -0.0230671726167202 0.0031812998931854963 7.910429849289358E-4 -0.0719805508852005 -0.10917181521654129 -0.008235031738877296 0.05714970454573631 -0.03661179915070534 0.03668700531125069 -0.00974841509014368 0.048097915947437286 -0.03737359121441841 -0.013961599208414555 -0.0019285030430182815 0.033464472740888596 2.7426762972027063E-4 -0.00625524902716279 -0.05603182315826416 -0.0120330099016428 -0.004448066931217909 -0.025873124599456787 0.0497702956199646 -0.05618870258331299 0.041114866733551025 0.04457077756524086 -0.06046492978930473 0.024260645732283592 0.00317113078199327 0.018536990508437157 4.4813717249780893E-4 -0.0265880785882473 0.05538170039653778 0.004208465106785297 -0.03237862512469292 -0.057960886508226395 0.06496577709913254 0.05059317871928215 -6.467490456998348E-4 -0.005175442900508642 0.03567750006914139 -0.06211552023887634 -0.010213795118033886 -0.01892915926873684 0.029185328632593155 -0.004188732709735632 0.03830132633447647 0.06222052127122879 0.0023753931745886803 -0.07366738468408585 0.07321343570947647 0.022773439064621925 -0.01383155770599842 -0.03899731859564781 -0.024982482194900513 -0.03837667033076286 -0.03512345254421234 -0.006866085808724165 -0.018204260617494583 0.026027236133813858 -0.004235511180013418 -0.006822126917541027 -0.08018644899129868 0.011942917481064796 0.001523740473203361 0.009277693927288055 0.002438517054542899 0.00488578574731946 0.04224158450961113 -0.03988782688975334 0.0019022636115550995 -0.02212885022163391 0.010002484545111656 0.04284130036830902 -0.06424766033887863 0.050428226590156555 0.00337660382501781 -0.055958062410354614 -0.07655990123748779 0.06283996999263763 -0.052069760859012604 -0.04275898635387421 0.048295214772224426 -0.015382679179310799 -0.04631328582763672 0.0312124565243721 5.985716124996543E-4 -0.027283741161227226 -0.06091688573360443 -0.016291076317429543 -0.015202506445348263 0.023824645206332207 -0.004437266383320093 0.02782060205936432 0.002078734338283539 0.009607024490833282 -0.028903814032673836 0.049350447952747345 -0.1261577606201172 0.014540763571858406 -0.022305656224489212 -0.0829617828130722 -7.623133715242147E-4 -0.044741082936525345 0.0363752506673336 0.013422892428934574 -0.018379291519522667 -0.09429731220006943 0.02244688756763935 0.018837204203009605 -0.011831770651042461 -0.07340419292449951 4.303619789425284E-6 0.05263535678386688 0.014228030107915401 -0.06619174033403397 -0.11565905064344406 0.026585398241877556 -0.04414791986346245 0.0659918487071991 0.037756070494651794 0.07325993478298187 -0.04547068849205971 -0.023640042170882225 0.0467834398150444 0.002209585625678301 -0.021829014644026756 -0.07778825610876083 0.06497106701135635 0.09289315342903137 -0.027351245284080505 -0.055236514657735825 0.024826090782880783 -0.007695079781115055 0.0675712451338768 0.06103091314435005 0.014285382814705372 -0.07022098451852798 0.009919201023876667 -0.018534313887357712 -0.036305610090494156 -0.0029538741800934076 0.05859532952308655 -0.0030004142317920923 0.04929951950907707 0.013788039796054363 -0.12039907276630402 -0.01056145504117012 0.049743618816137314 -0.0164088886231184 -0.049990423023700714 -0.04086635261774063 0.025621473789215088 -0.0854019746184349 0.06548281759023666 0.029162567108869553 -0.007429084274917841 0.05308423936367035 -0.08211065828800201 0.029089929535984993 0.014559151604771614 -0.010272454470396042 0.037874333560466766 -0.057325877249240875 0.052995044738054276 5.431678146123886E-4
지 9.07328212633729E-4 -0.025216326117515564 -0.054642122238874435 -0.03162659704685211 -0.045377232134342194 -0.05788305029273033 0.09448082745075226 -0.01115136593580246 -0.021579667925834656 -0.004339401610195637 0.06876242160797119 0.0064695910550653934 0.005625599063932896 -0.05528678745031357 -0.0025975583121180534 0.07539990544319153 0.07704900205135345 0.021620916202664375 0.04028862342238426 -0.014424698427319527 0.06685052067041397 0.0013554174220189452 0.05955587700009346 0.00941429566591978 0.004095479380339384 -0.041258279234170914 0.034224554896354675 0.007819764316082 0.04848293960094452 0.05435428395867348 -0.009764762595295906 0.019170578569173813 0.03840205818414688 0.031005650758743286 -0.07496944069862366 -0.026604536920785904 0.006862208247184753 0.0020769303664565086 -0.08582912385463715 -0.12672917544841766 -0.012105772271752357 0.06292041391134262 -0.04078508913516998 0.04567757621407509 -0.01655927300453186 0.05252106860280037 -0.04615551978349686 -0.013124876655638218 -0.003152999561280012 0.043116290122270584 -0.0017838553758338094 -0.009022429585456848 -0.06587789952754974 -0.01294151321053505 -0.009275630116462708 -0.03284222632646561 0.058055270463228226 -0.0646064430475235 0.050516221672296524 0.05330776423215866 -0.06939246505498886 0.026418307796120644 0.006991155911237001 0.02270694077014923 7.380623719654977E-4 -0.029432274401187897 0.06121036782860756 0.001180986873805523 -0.04200183227658272 -0.06845495104789734 0.0709272250533104 0.055749647319316864 0.0017348331166431308 -0.007599719800055027 0.03880317881703377 -0.07048057019710541 -0.010107545182108879 -0.02092554047703743 0.033562641590833664 -0.00668602529913187 0.044940847903490067 0.06987331062555313 0.0027122541796416044 -0.08087752759456635 0.08299801498651505 0.02794971689581871 -0.013749942183494568 -0.04463392496109009 -0.028972582891583443 -0.04166168347001076 -0.041613176465034485 -0.005478183273226023 -0.02009725570678711 0.028021907433867455 -0.0029287240467965603 -0.011598190292716026 -0.09482195973396301 0.016414090991020203 0.002551585901528597 0.01450980082154274 4.736207483801991E-4 0.004561532288789749 0.04925480857491493 -0.04667222127318382 0.005288930144160986 -0.02684188075363636 0.01258201152086258 0.04917879402637482 -0.07446072995662689 0.06108569726347923 0.0033133511897176504 -0.0647071972489357 -0.0864052027463913 0.07096689194440842 -0.06536942720413208 -0.04791342467069626 0.05588617920875549 -0.014879100024700165 -0.04796333238482475 0.037055548280477524 3.389858757145703E-4 -0.029270218685269356 -0.0680706799030304 -0.015420278534293175 -0.01909571886062622 0.026321278885006905 -0.0023563867434859276 0.02862413041293621 0.002378706121817231 0.009615995921194553 -0.03356582671403885 0.06045576557517052 -0.14329379796981812 0.01151412446051836 -0.022369664162397385 -0.0957094132900238 9.402179857715964E-4 -0.05424527823925018 0.04499409347772598 0.01673968881368637 -0.019936734810471535 -0.11349977552890778 0.02696792408823967 0.02073460817337036 -0.016794933006167412 -0.0831863135099411 0.0016062664799392223 0.05956287309527397 0.020379476249217987 -0.07557432353496552 -0.1326553076505661 0.02888098917901516 -0.052718691527843475 0.07409322261810303 0.04469271004199982 0.0850633829832077 -0.05598187819123268 -0.02602776698768139 0.051138557493686676 0.0037338989786803722 -0.02365673892199993 -0.08709730207920074 0.07631425559520721 0.10779659450054169 -0.02910780906677246 -0.06573179364204407 0.02522210218012333 -0.011454286053776741 0.0803067535161972 0.07178279757499695 0.015772895887494087 -0.08201228082180023 0.011273935437202454 -0.02285570651292801 -0.043780021369457245 -0.004571096505969763 0.06904910504817963 -0.0050960746593773365 0.05997655168175697 0.014158345758914948 -0.13984429836273193 -0.00943985115736723 0.06184367462992668 -0.02058609575033188 -0.061801355332136154 -0.047993406653404236 0.024433763697743416 -0.09843072295188904 0.07435965538024902 0.03562398627400398 -0.010837201029062271 0.06535718590021133 -0.09128361940383911 0.03765062242746353 0.014655844308435917 -0.015049520879983902 0.044229988008737564 -0.06561267375946045 0.06340019404888153 0.002367056906223297
은 6.009740172885358E-5 -0.02086346037685871 -0.04377652332186699 -0.025652961805462837 -0.03745001181960106 -0.04214891791343689 0.06888341903686523 -0.011247796937823296 -0.017934152856469154 -6.453744135797024E-4 0.05474783852696419 0.0036866022273898125 0.0016767086926847696 -0.042041338980197906 -0.0016421800246462226 0.05354797840118408 0.05752338469028473 0.01212443970143795 0.03185601532459259 -0.007178612519055605 0.05222160741686821 0.00146473350469023 0.04352981969714165 0.005343783181160688 0.002015181817114353 -0.029799243435263634 0.026124853640794754 0.004126407206058502 0.03532617911696434 0.04308152198791504 -0.010510165244340897 0.015128489583730698 0.030735472217202187 0.02559247799217701 -0.05860787630081177 -0.021441172808408737 0.00803858507424593 -0.0012626437237486243 -0.06546574085950851 -0.09348315000534058 -0.004632630385458469 0.049341294914484024 -0.02847127802670002 0.034012846648693085 -0.011634638532996178 0.039677638560533524 -0.03405960276722908 -0.012007265351712704 -3.182158980052918E-5 0.031896717846393585 0.0012677698396146297 -0.009771361015737057 -0.051253270357847214 -0.009687618352472782 -0.006408511660993099 -0.025559471920132637 0.04487672448158264 -0.052947402000427246 0.034875378012657166 0.03953999653458595 -0.049997761845588684 0.01929199881851673 0.005112309940159321 0.015783414244651794 0.0023815880995243788 -0.021179605275392532 0.044228214770555496 0.004091981798410416 -0.03208781033754349 -0.04944773390889168 0.055068034678697586 0.042555004358291626 0.0029045608825981617 -0.005666898097842932 0.030557243153452873 -0.053194936364889145 -0.004153927322477102 -0.019148441031575203 0.023620782420039177 -0.0046241371892392635 0.037038013339042664 0.05342309549450874 4.847709205932915E-4 -0.06369802355766296 0.0670618861913681 0.021410774439573288 -0.0105447331443429 -0.034231722354888916 -0.021454108878970146 -0.02994346432387829 -0.03019919991493225 -0.002981324214488268 -0.012550607323646545 0.020258016884326935 -0.00525636225938797 -0.00846005603671074 -0.07095913589000702 0.012349861674010754 0.003451710334047675 0.01332041248679161 0.004525185562670231 0.003723796224221587 0.03814628720283508 -0.03254321217536926 0.0026238723658025265 -0.018443802371621132 0.008563319221138954 0.03596250340342522 -0.05409177020192146 0.04596858471632004 0.0027725619729608297 -0.046174269169569016 -0.06729856133460999 0.053013697266578674 -0.04564591124653816 -0.03188883513212204 0.04189988970756531 -0.011769898235797882 -0.03868711367249489 0.032025646418333054 0.002150782849639654 -0.021828988566994667 -0.05531175807118416 -0.011287719942629337 -0.014148067682981491 0.023840127512812614 -0.0046376558020710945 0.02340000681579113 0.0023894745390862226 0.007857222110033035 -0.024268288165330887 0.047734279185533524 -0.1100408285856247 0.010195993818342686 -0.02028494141995907 -0.07589005678892136 0.003934598993510008 -0.042091965675354004 0.033872030675411224 0.013259556144475937 -0.015182342380285263 -0.08560522645711899 0.020434577018022537 0.015848319977521896 -0.013346001505851746 -0.05932321771979332 0.001699076034128666 0.0459127277135849 0.014366235584020615 -0.057441674172878265 -0.10008012503385544 0.020609024912118912 -0.039721690118312836 0.05836227163672447 0.032842475920915604 0.06826576590538025 -0.04436083883047104 -0.02141202799975872 0.041744306683540344 1.387587981298566E-4 -0.022293975576758385 -0.06585681438446045 0.05526250600814819 0.0807027667760849 -0.022470349445939064 -0.04968445748090744 0.021029526367783546 -0.00865456834435463 0.06137097626924515 0.05488745495676994 0.010693694464862347 -0.060689255595207214 0.00843962375074625 -0.01398392952978611 -0.03229266405105591 -0.0031340676359832287 0.055805012583732605 -0.007951535284519196 0.043998319655656815 0.01348614040762186 -0.1043262854218483 -0.00851407926529646 0.04642758518457413 -0.01794232241809368 -0.04609830304980278 -0.03618205338716507 0.018836133182048798 -0.07912507653236389 0.054592374712228775 0.025403890758752823 -0.008347654715180397 0.04515005275607109 -0.06926047056913376 0.0285163763910532 0.007815808057785034 -0.009159283712506294 0.03504662960767746 -0.050968047231435776 0.048499274998903275 0.0021231656428426504
을 -0.0018920458387583494 -0.018339158967137337 -0.03749166429042816 -0.02619636058807373 -0.030177408829331398 -0.044142525643110275 0.06605814397335052 -0.009914075955748558 -0.014945794828236103 -0.003800990292802453 0.049524758011102676 0.003980312496423721 0.004825770389288664 -0.03855348378419876 -0.0023114068899303675 0.053116489201784134 0.053901366889476776 0.015527424402534962 0.030749168246984482 -0.010376364924013615 0.0443611741065979 1.1123967124149203E-4 0.04150966927409172 0.007233545184135437 -0.0024975682608783245 -0.028183823451399803 0.025157639756798744 0.003691102610900998 0.038125697523355484 0.04162473976612091 -0.0033545976039022207 0.014687851071357727 0.02619234286248684 0.024595219641923904 -0.05093788355588913 -0.020021922886371613 0.005281851626932621 7.16834852937609E-4 -0.06185785308480263 -0.09158866107463837 -0.00888789165765047 0.04624304547905922 -0.030700789764523506 0.03001227229833603 -0.011148068122565746 0.03893082216382027 -0.030894219875335693 -0.012953625060617924 -0.0020596333779394627 0.0277993343770504 -2.5788554921746254E-4 -0.006660299841314554 -0.04473215714097023 -0.012447793036699295 -0.004578068386763334 -0.022201595827937126 0.045375458896160126 -0.04304984211921692 0.035131849348545074 0.03341074287891388 -0.04563828930258751 0.018474245443940163 0.0036086631007492542 0.017042554914951324 -8.577730623073876E-4 -0.01902833580970764 0.04611566662788391 -2.7612154372036457E-4 -0.02911735326051712 -0.051168035715818405 0.05492021143436432 0.04086308181285858 -3.287130384705961E-4 -0.006389672867953777 0.030589891597628593 -0.05129403993487358 -0.007549918256700039 -0.01522541418671608 0.027907606214284897 -0.0020884661935269833 0.029908353462815285 0.05203702300786972 -2.7473783120512962E-5 -0.06035308167338371 0.05497492477297783 0.022086674347519875 -0.010578306391835213 -0.03591415658593178 -0.022597486153244972 -0.032621968537569046 -0.026608388870954514 -0.00495375320315361 -0.016042394563555717 0.023081224411725998 -0.0036505020689219236 -0.005498689133673906 -0.06910288333892822 0.01351627055555582 0.003508799010887742 0.008981366641819477 0.0012793611967936158 0.004941943567246199 0.03397905081510544 -0.03393036499619484 2.8815603582188487E-4 -0.016058582812547684 0.008403494954109192 0.034157898277044296 -0.05235262215137482 0.04066826403141022 0.00406765379011631 -0.046594664454460144 -0.06129058822989464 0.049977462738752365 -0.042487964034080505 -0.033360034227371216 0.04078591987490654 -0.010266128927469254 -0.03580203279852867 0.025225326418876648 0.0028413324616849422 -0.02434147708117962 -0.04919495806097984 -0.012425788678228855 -0.010077211074531078 0.0169661995023489 0.0017711108084768057 0.022081244736909866 -7.968952995724976E-4 0.005947903264313936 -0.026965586468577385 0.04481295868754387 -0.10389433056116104 0.011852927505970001 -0.015366258099675179 -0.06587518751621246 -0.0018749525770545006 -0.04010975360870361 0.032636430114507675 0.012360438704490662 -0.016132432967424393 -0.07774721086025238 0.01933576539158821 0.015926871448755264 -0.007747731637209654 -0.06271549314260483 -9.900022996589541E-4 0.042375147342681885 0.014180612750351429 -0.055565088987350464 -0.09600771218538284 0.022245818749070168 -0.0366639569401741 0.05228739604353905 0.02965434081852436 0.060039203613996506 -0.0366714783012867 -0.021396055817604065 0.04165040701627731 -8.068630704656243E-4 -0.017031092196702957 -0.06042792648077011 0.050858426839113235 0.0781678706407547 -0.022196264937520027 -0.04929332062602043 0.020020844414830208 -0.008696571923792362 0.05694399029016495 0.05430962145328522 0.011799517087638378 -0.06053464114665985 0.007960149087011814 -0.01936320960521698 -0.028888288885354996 -0.005303470883518457 0.048030056059360504 4.372306866571307E-4 0.043520864099264145 0.013371354900300503 -0.09673285484313965 -0.008846915327012539 0.039640773087739944 -0.014459903351962566 -0.04352281242609024 -0.033621158450841904 0.020861901342868805 -0.06780769675970078 0.049455977976322174 0.024284590035676956 -0.005696549080312252 0.046528562903404236 -0.06821411103010178 0.023556672036647797 0.010422147810459137 -0.0119137829169631 0.029878217726945877 -0.04698048159480095 0.04613587632775307 6.869171920698136E-5
아 -0.00248329876922071 -0.04109099134802818 -0.06954188644886017 -0.0372019037604332 -0.04761408641934395 -0.07686963677406311 0.1108640655875206 -0.00859641470015049 -0.03480831906199455 -0.003050152212381363 0.08355836570262909 0.004539777524769306 0.005894889589399099 -0.06818535178899765 -0.009030320681631565 0.09799379855394363 0.09935012459754944 0.023620985448360443 0.05329819396138191 -0.022014733403921127 0.0829722210764885 0.005498423241078854 0.07688691467046738 0.017343517392873764 -0.007656166795641184 -0.049311839044094086 0.04187483713030815 0.007630904670804739 0.0691504180431366 0.06968079507350922 -0.004141397774219513 0.030966343358159065 0.048442382365465164 0.050632040947675705 -0.09245380759239197 -0.03204099461436272 0.002970572328194976 0.011624555103480816 -0.1132911667227745 -0.15384508669376373 -0.020346008241176605 0.08400443941354752 -0.057685486972332 0.057109471410512924 -0.01155967265367508 0.07416782528162003 -0.05508890002965927 -0.022485407069325447 -0.007236943580210209 0.052554599940776825 0.007154657505452633 -0.012723099440336227 -0.08177920430898666 -0.023584233596920967 -0.0027053547091782093 -0.04420815408229828 0.08120990544557571 -0.06616612523794174 0.05911353975534439 0.058967188000679016 -0.08248696476221085 0.029895978048443794 0.005270692985504866 0.023370830342173576 5.508029134944081E-4 -0.03756071999669075 0.08623911440372467 -0.004053410608321428 -0.05225449800491333 -0.08714954555034637 0.09170707315206528 0.07247421890497208 -0.004821850918233395 -0.011168588884174824 0.05432303994894028 -0.08894163370132446 -0.013618482276797295 -0.016892634332180023 0.054674793034791946 -0.006143327336758375 0.04519956186413765 0.09195629507303238 0.002881726948544383 -0.10960885882377625 0.09120125323534012 0.03564877435564995 -0.01739712804555893 -0.06319984793663025 -0.03295014053583145 -0.05291023105382919 -0.04516942426562309 -1.896330650197342E-4 -0.03493819385766983 0.03941269963979721 -0.009056012146174908 -0.01688159629702568 -0.1213533878326416 0.02481199987232685 0.00404290622100234 0.013855557888746262 -1.474136224715039E-4 0.0025328996125608683 0.060990847647190094 -0.051405634731054306 -0.0030052352230995893 -0.03047666884958744 0.015674414113163948 0.06393603980541229 -0.09300123155117035 0.07949117571115494 0.0010301311267539859 -0.0768493190407753 -0.1088789775967598 0.08866576850414276 -0.07372649013996124 -0.0609118826687336 0.07175598293542862 -0.010752912610769272 -0.06737958639860153 0.03344261646270752 5.756918108090758E-4 -0.04125155508518219 -0.08322546631097794 -0.02843904122710228 -0.01358463428914547 0.030441120266914368 0.0028509830590337515 0.03628739342093468 0.004498849622905254 0.01719004102051258 -0.04747897759079933 0.0729212686419487 -0.18108926713466644 0.019704531878232956 -0.03472147136926651 -0.12211653590202332 -0.0021122051402926445 -0.06518542766571045 0.05684845522046089 0.019056269899010658 -0.02438691444694996 -0.13970743119716644 0.024737471714615822 0.021934516727924347 -0.014034205116331577 -0.10603620111942291 0.002608432900160551 0.07310517132282257 0.018182072788476944 -0.09542452543973923 -0.1647079586982727 0.03914802893996239 -0.05423895642161369 0.09325704723596573 0.051055990159511566 0.10099223256111145 -0.06381680816411972 -0.041340991854667664 0.07604820281267166 -0.007018523756414652 -0.028379354625940323 -0.10984180122613907 0.09021347016096115 0.13739192485809326 -0.046892162412405014 -0.08765851706266403 0.03726666420698166 -0.014741426333785057 0.0983721986413002 0.09040496498346329 0.013721504248678684 -0.10659362375736237 0.014342688024044037 -0.030718017369508743 -0.05506955832242966 -0.01584610529243946 0.08431774377822876 0.0035421105567365885 0.07706717401742935 0.02488156408071518 -0.169168159365654 -0.01599036529660225 0.0756249874830246 -0.020692965015769005 -0.06950261443853378 -0.05803605541586876 0.037979595363140106 -0.1196548342704773 0.09117240458726883 0.03372293338179588 -0.008398379199206829 0.07668902724981308 -0.1239844486117363 0.04333251714706421 0.019099360331892967 -0.02110646478831768 0.050032924860715866 -0.08997338265180588 0.0815463736653328 -0.010285734198987484
기타 -0.0013532746816053987 -0.017862021923065186 -0.03219781070947647 -0.0183409396559 -0.02372436784207821 -0.031041551381349564 0.05126219987869263 -0.004297684412449598 -0.013335257768630981 -0.004024949856102467 0.03875815495848656 0.003949184902012348 6.916801212355494E-4 -0.030226077884435654 -0.0016141424421221018 0.042432475835084915 0.04323853552341461 0.011424589902162552 0.02520204894244671 -0.008354813791811466 0.03491345793008804 0.002016242826357484 0.03562568500638008 0.007957495748996735 9.552253177389503E-4 -0.0226504635065794 0.01861284114420414 0.00582004664465785 0.026806272566318512 0.03212432190775871 -0.005435287486761808 0.011391354724764824 0.021478338167071342 0.01984409987926483 -0.0385085865855217 -0.013229884207248688 0.0050310175865888596 0.003946290817111731 -0.048119813203811646 -0.07027004659175873 -0.004074225667864084 0.03647780418395996 -0.022812122479081154 0.02657725289463997 -0.006471158470958471 0.03001922182738781 -0.021959736943244934 -0.007429135497659445 -0.002653630916029215 0.023173082619905472 -2.418568910798058E-4 -0.003280853619799018 -0.03708026185631752 -0.009477509185671806 -0.0024860065896064043 -0.017382502555847168 0.03366018459200859 -0.033384669572114944 0.02399103343486786 0.02683812752366066 -0.0395924337208271 0.013477636501193047 0.0034428266808390617 0.010895650833845139 0.0018185473745688796 -0.016450028866529465 0.03598888963460922 0.0012632748112082481 -0.02030591480433941 -0.03973338380455971 0.04205827787518501 0.03196829557418823 0.0010314466198906302 -0.006472679320722818 0.020043881610035896 -0.03740737587213516 -0.005608458071947098 -0.008093633688986301 0.02143605425953865 -0.001907752244733274 0.021138420328497887 0.041393231600522995 -0.001037370995618403 -0.04755531623959541 0.045585088431835175 0.013923035003244877 -0.005274882074445486 -0.025566838681697845 -0.01445094309747219 -0.021795053035020828 -0.021326333284378052 -0.0017411939334124327 -0.010980729013681412 0.0171000137925148 -0.0019273122306913137 -0.00722995912656188 -0.050827156752347946 0.008002799935638905 0.003259069984778762 0.005664424505084753 0.001062984112650156 0.003220203099772334 0.028411151841282845 -0.026343384757637978 -0.0012190635316073895 -0.015140422619879246 0.004811491817235947 0.02548423409461975 -0.04157226160168648 0.03455423563718796 0.001608733437024057 -0.03359703719615936 -0.04848679527640343 0.03810818865895271 -0.03274053707718849 -0.024755192920565605 0.03292208909988403 -0.010327871888875961 -0.029335958883166313 0.01972080022096634 3.647172707132995E-5 -0.01570269837975502 -0.037610042840242386 -0.01033709291368723 -0.00965690053999424 0.015068558976054192 -4.317622515372932E-4 0.017297513782978058 -0.0018093191320076585 0.004686672706156969 -0.019428769126534462 0.031101005151867867 -0.07803623378276825 0.010128391906619072 -0.013900619000196457 -0.05425792187452316 -0.001309531508013606 -0.02988470532000065 0.02431728132069111 0.009289024397730827 -0.012516855262219906 -0.05937618017196655 0.013673804700374603 0.011567844077944756 -0.006500499788671732 -0.04807153344154358 -0.0013001796323806047 0.03369282931089401 0.00759374164044857 -0.03925264999270439 -0.07156261801719666 0.018507936969399452 -0.02966325730085373 0.03864820674061775 0.025000043213367462 0.04592099413275719 -0.027225546538829803 -0.015852494165301323 0.030920924618840218 -8.168421336449683E-4 -0.01262796763330698 -0.04793043062090874 0.04164707288146019 0.05833824351429939 -0.016111470758914948 -0.03783036395907402 0.013862945139408112 -0.005140738096088171 0.04091884195804596 0.03766297549009323 0.006089314352720976 -0.044095300137996674 0.0071576000191271305 -0.012838291935622692 -0.021596062928438187 -0.006282911170274019 0.03748645633459091 -0.0015493412502110004 0.035118892788887024 0.008575568906962872 -0.07603149116039276 -0.007503576576709747 0.029991095885634422 -0.011068426072597504 -0.03116074576973915 -0.025560958310961723 0.01754891313612461 -0.054916128516197205 0.040647394955158234 0.020348526537418365 -0.003322766860947013 0.03645981848239899 -0.053539518266916275 0.01773071475327015 0.006421373691409826 -0.006887677125632763 0.02162415161728859 -0.039181243628263474 0.03411649540066719 -0.0032367573585361242
다운 9.560156031511724E-4 -0.02758500538766384 -0.04630156606435776 -0.03021647408604622 -0.039519235491752625 -0.04885577782988548 0.07945325970649719 -0.012546351179480553 -0.01825117878615856 -9.626613464206457E-4 0.0592525377869606 0.0058297328650951385 0.0019003304187208414 -0.04350539669394493 -0.0024485683534294367 0.06322520971298218 0.06396190822124481 0.016496211290359497 0.03761722892522812 -0.012588849291205406 0.0540439672768116 0.003900401759892702 0.051564645022153854 0.010411662980914116 9.112905827350914E-4 -0.03609021380543709 0.034123387187719345 0.008738299831748009 0.042421989142894745 0.04828599840402603 -0.007452753838151693 0.01948186382651329 0.035698939114809036 0.031591836363077164 -0.06367117166519165 -0.02048017457127571 0.00463178101927042 0.002076242119073868 -0.07265760004520416 -0.10802796483039856 -0.007929102517664433 0.05485090985894203 -0.03676421195268631 0.03857746720314026 -0.01287019532173872 0.04848962649703026 -0.038652315735816956 -0.015044781379401684 -0.004987678024917841 0.03533511608839035 0.0010009929537773132 -0.007753445766866207 -0.056428972631692886 -0.011926643550395966 -0.00650550564751029 -0.028685303404927254 0.053932394832372665 -0.052518051117658615 0.042211297899484634 0.04133200645446777 -0.05439169704914093 0.021425927057862282 0.003751453012228012 0.01811142824590206 -0.002038610866293311 -0.025622136890888214 0.054080892354249954 8.086268790066242E-4 -0.035733576864004135 -0.05685598403215408 0.06411128491163254 0.04830813780426979 -0.002932382980361581 -0.00400623818859458 0.032464269548654556 -0.055667031556367874 -0.008422313258051872 -0.01690833829343319 0.031173238530755043 -0.0011856774799525738 0.033981431275606155 0.05818089097738266 3.0411413172259927E-4 -0.07048462331295013 0.06888259202241898 0.02739463746547699 -0.009042616933584213 -0.042274270206689835 -0.02364872582256794 -0.037354402244091034 -0.030208580195903778 -0.003945867996662855 -0.018367435783147812 0.025418568402528763 -0.0035681244917213917 -0.006992184091359377 -0.08193586766719818 0.015308760106563568 0.003354074899107218 0.010739282704889774 0.003403210546821356 0.0027547588106244802 0.04125701263546944 -0.03770611807703972 0.002477430971339345 -0.02313174679875374 0.007290703244507313 0.042679671198129654 -0.06377366185188293 0.05033844709396362 0.006990261375904083 -0.055169478058815 -0.07600471377372742 0.05534983426332474 -0.05378986522555351 -0.03786977380514145 0.049530234187841415 -0.01043342798948288 -0.04426193982362747 0.026118384674191475 -0.0014524151338264346 -0.026852872222661972 -0.05989924073219299 -0.016391877084970474 -0.016239864751696587 0.019826043397188187 -0.002134165959432721 0.022482750937342644 -0.002148582600057125 0.00946767721325159 -0.029067039489746094 0.04824638366699219 -0.12362714111804962 0.012678544968366623 -0.019756872206926346 -0.07889322191476822 -7.570130401290953E-4 -0.04374285787343979 0.03504505008459091 0.011705189011991024 -0.014810596592724323 -0.0963355302810669 0.01996562071144581 0.019309649243950844 -0.010372418910264969 -0.07131769508123398 -1.280906581087038E-4 0.04618705064058304 0.016941454261541367 -0.06560606509447098 -0.11202962696552277 0.025013558566570282 -0.03972239047288895 0.06267647445201874 0.03536631539463997 0.07094128429889679 -0.04475836455821991 -0.022792549803853035 0.04620999097824097 -4.6237141941674054E-4 -0.020608197897672653 -0.07486488670110703 0.06138584017753601 0.0890146791934967 -0.03084985911846161 -0.057414811104536057 0.023095306009054184 -0.00981108844280243 0.06335696578025818 0.06221199408173561 0.013354630209505558 -0.07124362140893936 0.011875573545694351 -0.018069911748170853 -0.038371533155441284 -0.006138574331998825 0.05784597992897034 -0.0021920083090662956 0.051367636770009995 0.01654568314552307 -0.11671821773052216 -0.009408104233443737 0.04895516484975815 -0.01395999826490879 -0.053049612790346146 -0.040848180651664734 0.02440813183784485 -0.08578329533338547 0.05883127078413963 0.029626550152897835 -0.006671209819614887 0.05768239125609398 -0.07893770188093185 0.02917017787694931 0.011864939704537392 -0.01271711103618145 0.037862107157707214 -0.05922050029039383 0.052917249500751495 -0.005754408426582813
너 -8.011297904886305E-5 -0.02012457884848118 -0.047814056277275085 -0.028988711535930634 -0.037131570279598236 -0.04954681545495987 0.07867828011512756 -0.009612212888896465 -0.01823006570339203 -0.002896720776334405 0.05896218493580818 0.00491985771805048 0.005163202062249184 -0.047509271651506424 -0.001866659033112228 0.060757484287023544 0.06513421982526779 0.014380188658833504 0.03514672815799713 -0.012654095888137817 0.057836927473545074 0.003103619907051325 0.05177339166402817 0.012567133642733097 0.003301663091406226 -0.03464498743414879 0.03295277804136276 0.004101258236914873 0.04289809986948967 0.04763087257742882 -0.010374198667705059 0.016078978776931763 0.034600354731082916 0.03074888326227665 -0.062486182898283005 -0.023851575329899788 0.003780539147555828 -0.0011449853191152215 -0.07264087349176407 -0.10846498608589172 -0.008151374757289886 0.05341372266411781 -0.033926814794540405 0.038734618574380875 -0.014586345292627811 0.04161393269896507 -0.035376355051994324 -0.01669592782855034 -0.003913619089871645 0.03512109816074371 -0.002178789582103491 -0.00619603181257844 -0.05562270060181618 -0.011545009911060333 -0.008610749617218971 -0.028173310682177544 0.052441518753767014 -0.05656271427869797 0.04338854178786278 0.04626177251338959 -0.05600106716156006 0.0239202082157135 0.003078640438616276 0.01691054180264473 0.003466814523562789 -0.027588453143835068 0.05029657855629921 -5.527267348952591E-4 -0.037006229162216187 -0.059768568724393845 0.06405901163816452 0.04547231271862984 0.004463162738829851 -0.00391068821772933 0.0354645699262619 -0.06180407479405403 -0.006020734552294016 -0.01984567381441593 0.02865000069141388 -0.005276653449982405 0.03606288135051727 0.05892328545451164 -0.0014370575081557035 -0.07324729859828949 0.07340896874666214 0.025422459468245506 -0.012902364134788513 -0.04040096327662468 -0.021682778373360634 -0.03512739762663841 -0.03304596617817879 -0.006972945295274258 -0.016518471762537956 0.027608998119831085 -6.882478483021259E-4 -0.008906098082661629 -0.0807144045829773 0.012699083425104618 7.022629142738879E-4 0.012053301557898521 3.392149810679257E-4 0.004602411761879921 0.03906811773777008 -0.03804713115096092 0.0036570257507264614 -0.02087084762752056 0.00749419629573822 0.04117923229932785 -0.06316573172807693 0.048246439546346664 0.005724187474697828 -0.05139864236116409 -0.0769302174448967 0.061972539871931076 -0.05341207981109619 -0.04118315130472183 0.04791707918047905 -0.016306085512042046 -0.04284219443798065 0.033739857375621796 0.0020046227145940065 -0.027088813483715057 -0.060386378318071365 -0.016602898016572 -0.017335975542664528 0.022837478667497635 -0.001956343650817871 0.027081606909632683 -0.0011265425710007548 0.010315419174730778 -0.027267882600426674 0.05295515060424805 -0.12231112271547318 0.011445901356637478 -0.020369771867990494 -0.07894013077020645 -3.023996760020964E-5 -0.04778122156858444 0.03649347275495529 0.013184506446123123 -0.01667097769677639 -0.09272623062133789 0.024263180792331696 0.015737833455204964 -0.015788380056619644 -0.07252258062362671 -0.002912638010457158 0.05337125435471535 0.019029539078474045 -0.06491122394800186 -0.11440199613571167 0.026154253631830215 -0.04398278519511223 0.0600561797618866 0.0370788499712944 0.06999348849058151 -0.04771352931857109 -0.022499583661556244 0.04282258450984955 2.536709071137011E-4 -0.020684663206338882 -0.0741177424788475 0.06373599171638489 0.09164043515920639 -0.027962813153862953 -0.05876631289720535 0.02131890505552292 -0.010852694511413574 0.06778612732887268 0.06323225796222687 0.015661105513572693 -0.06807321310043335 0.009086480364203453 -0.02035333216190338 -0.037096500396728516 -0.002970706904307008 0.05950621888041496 -0.0060154711827635765 0.04887371510267258 0.011450476013123989 -0.11901994794607162 -0.005346257239580154 0.052953511476516724 -0.019893575459718704 -0.04834732413291931 -0.03831798955798149 0.021060729399323463 -0.08518562465906143 0.06260533630847931 0.028827903792262077 -0.00796038843691349 0.056652866303920746 -0.0779573917388916 0.03284221887588501 0.012896550819277763 -0.011446379125118256 0.03921294957399368 -0.05891076847910881 0.053499870002269745 0.0023119200486689806
있 -0.0027828500606119633 -0.01664065197110176 -0.03057084232568741 -0.02055439166724682 -0.028887126594781876 -0.03107641078531742 0.05439622327685356 -0.01052095741033554 -0.011634217575192451 -0.0018271252047270536 0.039699845016002655 9.914861293509603E-4 0.0021371671464294195 -0.03104369156062603 9.753431077115238E-4 0.03980269283056259 0.0427623949944973 0.010091726668179035 0.022127272561192513 -0.007431431673467159 0.035996418446302414 0.0017148826736956835 0.033329129219055176 0.0044956449419260025 0.004075848497450352 -0.020326435565948486 0.019067274406552315 0.0030497792176902294 0.02339262142777443 0.03216264769434929 -0.0067167035304009914 0.00909888930618763 0.02063858136534691 0.017758077010512352 -0.04364267364144325 -0.013672390952706337 0.004023010842502117 -0.0020709093660116196 -0.04597294330596924 -0.07208371162414551 -0.0067618368193507195 0.03577474132180214 -0.022901495918631554 0.026332667097449303 -0.006864594295620918 0.02587241865694523 -0.026500798761844635 -0.00724367331713438 -0.002439737319946289 0.020932193845510483 -0.0010820593452081084 -0.007018171716481447 -0.033510204404592514 -0.007901737466454506 -0.005692643579095602 -0.015991907566785812 0.031114429235458374 -0.03530295193195343 0.026855871081352234 0.031018799170851707 -0.03672313690185547 0.01589309424161911 5.311990389600396E-4 0.014502805657684803 0.002776678651571274 -0.016397252678871155 0.03156256675720215 0.002985805505886674 -0.020967774093151093 -0.03710166737437248 0.04171734303236008 0.03371177241206169 0.004096090327948332 -0.005271736066788435 0.020083125680685043 -0.0394110232591629 -0.0022117116022855043 -0.014214474707841873 0.016205379739403725 -0.004522678907960653 0.025868359953165054 0.04038533568382263 0.0024596937000751495 -0.04665978252887726 0.04533977061510086 0.01610056310892105 -0.007893787696957588 -0.023159930482506752 -0.015575082041323185 -0.02564314194023609 -0.02088087610900402 -0.005336446221917868 -0.008350737392902374 0.014902927912771702 -0.0029640202410519123 -0.007219960447400808 -0.051805347204208374 0.0071680122055113316 -6.901461165398359E-4 0.008567632175981998 0.0037345830351114273 0.004116232506930828 0.027540262788534164 -0.02488306164741516 0.005088461562991142 -0.014905848540365696 0.0048900023102760315 0.025955816730856895 -0.042472898960113525 0.03419451043009758 0.0053930156864225864 -0.03841783478856087 -0.05073527246713638 0.03875655308365822 -0.03608988597989082 -0.026231683790683746 0.028416670858860016 -0.011828836053609848 -0.025430042296648026 0.020155414938926697 -0.0023623728193342686 -0.016208838671445847 -0.04043060541152954 -0.009884853847324848 -0.014440509490668774 0.015154075808823109 -0.003996707499027252 0.019088082015514374 0.0019485277589410543 0.00759081169962883 -0.017936792224645615 0.03563424572348595 -0.08139748126268387 0.008959625847637653 -0.010983285494148731 -0.05194495990872383 0.0016590827144682407 -0.029126552864909172 0.024671901017427444 0.010293503291904926 -0.012713823467493057 -0.06048716604709625 0.015405329875648022 0.01067913044244051 -0.011081567034125328 -0.04633564502000809 -0.0033251952845603228 0.034506846219301224 0.012034691870212555 -0.03910844400525093 -0.07378198951482773 0.015342677012085915 -0.03097163885831833 0.03988762944936752 0.023585131391882896 0.04620513319969177 -0.029735708609223366 -0.015867246314883232 0.026081480085849762 -3.044139011763036E-4 -0.016796911135315895 -0.050065018236637115 0.04359140247106552 0.05792233347892761 -0.01728745736181736 -0.038614802062511444 0.016272280365228653 -0.007228277623653412 0.0449356734752655 0.03793572634458542 0.007028203457593918 -0.04315493628382683 0.00790348183363676 -0.010153748095035553 -0.024448243901133537 -0.001376663101837039 0.03778835013508797 -0.004402562975883484 0.035098038613796234 0.007878738455474377 -0.07668089866638184 -0.004939103499054909 0.03179902210831642 -0.0099128857254982 -0.033565182238817215 -0.026543276384472847 0.01610051654279232 -0.05751681700348854 0.037510741502046585 0.02154104970395565 -0.0050950669683516026 0.0387643501162529 -0.05139518156647682 0.02255989797413349 0.007529793307185173 -0.005894155707210302 0.025045789778232574 -0.03483282029628754 0.037438519299030304 -8.704044739715755E-4
이름 4.244107403792441E-4 -0.003508028807118535 -0.008885596878826618 -0.0064036608673632145 -0.007079523988068104 -0.004906975664198399 0.012475602328777313 -0.003553912276402116 -0.004662054590880871 0.0010745561448857188 0.00645464239642024 0.003160699037835002 0.002734539331868291 -0.005583271384239197 -4.1094981133937836E-4 0.009018577635288239 0.006641106680035591 0.0040148342959582806 0.00661902129650116 6.658505299128592E-4 0.009376945905387402 -5.485070287249982E-4 0.008603586815297604 0.0010368049843236804 0.002286948263645172 -0.007178731728345156 0.004221563693135977 2.966574393212795E-4 0.004102090839296579 0.007541763596236706 -8.505131700076163E-4 2.0372678409330547E-4 0.006965986452996731 0.0017404969548806548 -0.007482585497200489 -0.002989118220284581 -0.0017908831359818578 -8.310165721923113E-4 -0.009702770039439201 -0.013477420434355736 -0.001491896458901465 0.009010650217533112 -0.004406994208693504 0.004265145398676395 -0.0034641344100236893 0.007839560508728027 -0.006459031254053116 -1.0084004316013306E-4 0.0015989358071237803 0.007012180984020233 0.0019359498983249068 -0.002782980678603053 -0.007857581600546837 -0.0035273542162030935 -9.682146483100951E-4 -0.005369621329009533 0.0052720969542860985 -0.008942917920649052 0.0048097167164087296 0.005937013775110245 -0.00952133722603321 0.004965459927916527 0.0014112091157585382 0.004013463389128447 -0.0016113950405269861 -0.00432319100946188 0.008463854901492596 0.001743978587910533 -0.005030542146414518 -0.005350988358259201 0.009020368568599224 0.007014082279056311 0.0011631754459813237 -9.14903124794364E-4 0.005354598630219698 -0.005616330541670322 -0.002123161219060421 -8.280228939838707E-5 0.003972755279392004 -0.002825085772201419 0.0061991261318326 0.01030649896711111 6.552719278261065E-4 -0.010822603479027748 0.011325165629386902 0.002653668634593487 -0.0012399365659803152 -0.005473671946674585 -0.004737737588584423 -0.002413251204416156 -0.006451070308685303 7.537010824307799E-4 -0.0016584470868110657 0.00344518362544477 -3.515398711897433E-4 -0.0010811998508870602 -0.010883239097893238 0.003923006821423769 8.725454681552947E-4 0.0037947001401335 -5.934411310590804E-4 0.0018985423957929015 0.006949392147362232 -0.006068581715226173 0.00164358492475003 -9.419791749678552E-4 0.002579340711236 0.005671274848282337 -0.008831381797790527 0.007928733713924885 5.403619725257158E-4 -0.008661017753183842 -0.012410075403749943 0.005961406044661999 -0.004874843172729015 -0.005453037563711405 0.005252597853541374 3.9208578527905047E-4 -0.007021201774477959 0.004509099293500185 -0.0023504903074353933 -0.004117218311876059 -0.007052856031805277 -0.004229636862874031 -7.559530786238611E-5 0.004772242624312639 0.0014674332924187183 0.001169965136796236 -0.0022578840143978596 -0.0010411401744931936 -0.0024917193222790956 0.00713397515937686 -0.017739443108439445 0.0019589124713093042 -0.003764920635148883 -0.011664887890219688 1.308203354710713E-5 -0.006100168917328119 0.0038531948812305927 0.0011734168510884047 -6.89379870891571E-4 -0.014439698308706284 8.852658793330193E-4 0.0036697566974908113 -0.003947140648961067 -0.010137795470654964 7.111314916983247E-4 0.007509097922593355 0.0035449094139039516 -0.00984310545027256 -0.016914701089262962 0.0011388229904696345 -0.0077044544741511345 0.009858030825853348 0.006803808733820915 0.012034062296152115 -0.007816781289875507 -0.005021363031119108 0.008553043939173222 0.002544838236644864 -0.0012596705928444862 -0.012464044615626335 0.008968320675194263 0.014200718142092228 -0.004148297943174839 -0.008262481540441513 0.002562468172982335 -4.1419611079618335E-4 0.010885780677199364 0.008519593626260757 -6.188703118823469E-4 -0.009098371490836143 -4.851767444051802E-4 -7.135583437047899E-4 -0.006602995563298464 0.0014087019953876734 0.008982505649328232 -0.0019624719861894846 0.00482410192489624 2.1906569600105286E-4 -0.01788017898797989 -0.0018091105157509446 0.008145870640873909 -8.456262294203043E-4 -0.008415626361966133 -0.0065633454360067844 0.005051811225712299 -0.011085019446909428 0.006845585070550442 0.0021926637273281813 -0.002005296992138028 0.005251131486147642 -0.00972504448145628 0.005621257238090038 -2.831228484865278E-4 -0.0020335132721811533 0.0072890822775661945 -0.006942075211554766 0.007761313579976559 -1.3978681818116456E-4
전화 -3.7543277721852064E-4 -0.006006229668855667 -0.00907646119594574 -0.0024050914216786623 -0.007218846585601568 -0.010637989267706871 0.011449867859482765 -0.0031418357975780964 -0.0029033413156867027 0.002089358866214752 0.011583426967263222 0.002748473547399044 -7.13038258254528E-4 -0.007970010861754417 -9.434490348212421E-4 0.010982991196215153 0.009323295205831528 0.0037311087362468243 0.005856839474290609 -0.001025308622047305 0.008614640682935715 0.0010390437673777342 0.008287577889859676 2.080738340737298E-6 2.7533466345630586E-4 -0.0050592911429703236 0.007858054712414742 -6.061099702492356E-4 0.009535890072584152 0.00876265112310648 8.125763852149248E-4 9.108730591833591E-4 0.006695724558085203 0.005974890664219856 -0.013133488595485687 -0.005695301108062267 -9.488544892519712E-4 0.0017982709687203169 -0.012490720488131046 -0.02016572840511799 -0.001402679830789566 0.008242927491664886 -0.0045487890020012856 0.008547794073820114 -0.0034049104433506727 0.010647150687873363 -0.007905061356723309 -0.004480299074202776 -0.0023708289954811335 0.004329324699938297 -0.0020880645606666803 1.0903168004006147E-5 -0.008442176505923271 -0.001728775561787188 -0.0010457118041813374 -0.004334901459515095 0.007831471972167492 -0.00905486848205328 0.0045093330554664135 0.008838850073516369 -0.009780489839613438 0.0047490764409303665 -0.0014207207132130861 0.001419799868017435 0.0015884749591350555 -0.005349439103156328 0.009366168640553951 0.0021440910641103983 -0.004241651389747858 -0.008268161676824093 0.01049363985657692 0.01032460667192936 -0.0017221553716808558 -0.002017462393268943 0.00734203914180398 -0.0076416246592998505 -0.002322462387382984 -0.0040639350190758705 0.004501077812165022 -1.6758957644924521E-4 0.008168892934918404 0.010859617032110691 6.712264730595052E-4 -0.012176423333585262 0.009317333810031414 0.004021615721285343 -0.0037102526985108852 -0.006919889245182276 -0.003860234981402755 -0.003888501087203622 -0.005637303460389376 -4.3801951687783003E-4 -0.0030828015878796577 0.0053364974446594715 0.0010216929949820042 -7.410511607304215E-4 -0.013565580360591412 0.004297391977161169 -0.0019247691379860044 -5.042225238867104E-4 8.100090781226754E-4 0.0016066747484728694 0.005873700603842735 -0.006210233084857464 0.0011346170213073492 -0.004504700656980276 8.083366265054792E-5 0.005814412143081427 -0.010854660533368587 0.008887074887752533 0.0023090613540261984 -0.0075809587724506855 -0.01057577133178711 0.008410125970840454 -0.010562220588326454 -0.00462674256414175 0.007307059597223997 -0.0035803404171019793 -0.00953664444386959 0.005640505347400904 0.0016038882313296199 -0.006458834279328585 -0.00793493539094925 -0.005118039436638355 -0.0033455470111221075 0.0056787109933793545 0.0020752386189997196 0.005636143032461405 -0.001800025813281536 5.770880961790681E-4 -0.006059398874640465 0.006358399521559477 -0.020614422857761383 -3.8193134241737425E-4 -0.002387579996138811 -0.016885576769709587 -0.0018864168087020516 -0.006804295349866152 0.005149229429662228 3.914206172339618E-4 -0.0052592395804822445 -0.017800739035010338 0.00397412059828639 0.002675090217962861 -7.141512469388545E-4 -0.012113876640796661 0.0025548471603542566 0.008734885603189468 0.0024573407135903835 -0.011186507530510426 -0.01932370848953724 0.00590856745839119 -0.008112812414765358 0.010184348560869694 0.007095352280884981 0.014311982318758965 -0.009353346191346645 -0.001766883535310626 0.009632941335439682 0.0016469694674015045 -0.005406908690929413 -0.015011096373200417 0.012037805281579494 0.017269663512706757 -0.0045201717875897884 -0.008858218789100647 0.0019849028903990984 -0.0015903745079413056 0.012933331541717052 0.008494493551552296 0.002424405887722969 -0.013039521872997284 0.0018031479557976127 -0.002147067105397582 -0.0070253093726933 -0.003121572080999613 0.008935411460697651 5.41931192856282E-4 0.006453473120927811 0.0020327353850007057 -0.02245098166167736 -0.0026430445723235607 0.010548721998929977 -0.0026580465491861105 -0.010075732134282589 -0.006281143985688686 0.005728431977331638 -0.016585011035203934 0.009206096641719341 0.0023287490475922823 0.0012591654667630792 0.010609351098537445 -0.016125483438372612 0.004378711339086294 3.265871782787144E-4 -0.004292217083275318 0.0044127353467047215 -0.0122743034735322 0.008249462582170963 -0.0023221217561513186
알 6.597600295208395E-4 -0.005095645785331726 -0.013827168382704258 -0.006657514721155167 -0.010190967470407486 -0.01021606381982565 0.021441690623760223 -0.004544128198176622 -0.0047081150114536285 -0.0021072160452604294 0.015712594613432884 5.08459925185889E-5 0.001981331268325448 -0.011250969022512436 -3.7605914985761046E-4 0.0179588720202446 0.013723408803343773 0.005083181895315647 0.006879481486976147 -0.005199193023145199 0.0157671757042408 -0.0011446510907262564 0.015509147197008133 0.002296051476150751 0.003590116510167718 -0.010616268031299114 0.005987018346786499 0.0028626553248614073 0.007681136019527912 0.011595407500863075 -0.0043080830946564674 0.002780754119157791 0.010504772886633873 0.008059755899012089 -0.017253007739782333 -0.0047916448675096035 0.00334910792298615 -0.0017743422649800777 -0.018843334168195724 -0.025376735255122185 -4.52156993560493E-4 0.01504133827984333 -0.008628256618976593 0.008935571648180485 -0.005936846602708101 0.008767927065491676 -0.010341476649045944 -0.0015717449132353067 1.450017880415544E-4 0.009538242593407631 -0.0013555844780057669 -0.002588437171652913 -0.01269467268139124 -0.004081732593476772 -0.004327015019953251 -0.004336831625550985 0.01259700208902359 -0.013437358662486076 0.0103256581351161 0.009106126613914967 -0.01634422317147255 0.007427817676216364 -4.708480555564165E-4 0.005325280595570803 2.827319985954091E-5 -0.00794929824769497 0.013318031094968319 -0.0011005932465195656 -0.007086575962603092 -0.016501782462000847 0.015510385856032372 0.01448199711740017 0.0025770512875169516 -0.0027809832245111465 0.010303295217454433 -0.01366856787353754 -0.0027846626471728086 -0.007122828625142574 0.005060442723333836 4.3969921534880996E-5 0.008900861255824566 0.011763843707740307 0.0011575445532798767 -0.01691918447613716 0.018813230097293854 0.0066209230571985245 -0.0018365441355854273 -0.007108218036592007 -0.005142948590219021 -0.0096110999584198 -0.01084107719361782 -0.002643154002726078 -0.00313378032296896 0.007289756089448929 -0.00223923334851861 -0.0032104775309562683 -0.02018159069120884 0.0010140526574105024 -5.233261035755277E-4 0.0025157881900668144 7.805543718859553E-4 0.0036844341084361076 0.009890234097838402 -0.009765168651938438 3.750361502170563E-4 -0.0061210570856928825 0.0029636479448527098 0.008883612230420113 -0.015593437477946281 0.010126102715730667 0.0040245670825243 -0.014063111506402493 -0.01824476569890976 0.014828436076641083 -0.01562529243528843 -0.010317670181393623 0.008775807917118073 -0.005620299838483334 -0.010863704606890678 0.00979673769325018 0.0015437687980011106 -0.005112188868224621 -0.016967425122857094 -0.001405961811542511 -0.006351186893880367 0.004024781286716461 -0.0016244541620835662 0.00814477726817131 0.0016049799742177129 4.322506720200181E-5 -0.0072419652715325356 0.014138923957943916 -0.03262750059366226 0.0021752354223281145 -0.005302133969962597 -0.020739998668432236 0.0026904551777988672 -0.009273589588701725 0.007724955677986145 0.0059434534050524235 -0.0034399672877043486 -0.02387106977403164 0.006903740577399731 0.003498238744214177 -0.0035292375832796097 -0.01837613247334957 -0.0017914240015670657 0.013653092086315155 0.003323059529066086 -0.017000718042254448 -0.028304215520620346 0.00796455331146717 -0.011213589459657669 0.01264716126024723 0.011114883236587048 0.020540380850434303 -0.008763426914811134 -0.0028503811918199062 0.00990910455584526 0.002540079178288579 -0.006796626374125481 -0.019260920584201813 0.015957441180944443 0.02096119523048401 -0.004203656688332558 -0.016197428107261658 0.006079602520912886 -3.515800926834345E-6 0.018801510334014893 0.012952623888850212 0.002026621950790286 -0.01719077117741108 3.7209305446594954E-5 -0.0022715628147125244 -0.00817473977804184 -0.0023284165654331446 0.01717892847955227 -0.0034244467969983816 0.011403122916817665 0.003049792954698205 -0.02885533683001995 2.796972403302789E-4 0.014290421269834042 -0.0022422459442168474 -0.013933324255049229 -0.007917188107967377 0.0029508862644433975 -0.023372214287519455 0.017391446977853775 0.008350123651325703 -0.0036255447193980217 0.015818385407328606 -0.018266834318637848 0.009834269993007183 0.003271448891609907 -0.004924967885017395 0.010720709338784218 -0.016094917431473732 0.015235920436680317 -0.0019427690422162414
뭐 -0.0024265542160719633 -0.0252076406031847 -0.051478080451488495 -0.033616941422224045 -0.04419985041022301 -0.051339905709028244 0.08709210157394409 -0.013020949438214302 -0.019076647236943245 -0.0050996048375964165 0.06316555291414261 0.008473848924040794 0.0016292904037982225 -0.05070605129003525 -0.0018639338668435812 0.06928807497024536 0.07181055098772049 0.01957034133374691 0.03537615016102791 -0.011629421263933182 0.06151564419269562 7.306322222575545E-4 0.05551376938819885 0.00940607488155365 0.0015977815492078662 -0.034879595041275024 0.032708000391721725 0.006663832347840071 0.04151879996061325 0.051846545189619064 -0.012217089533805847 0.017619870603084564 0.032973092049360275 0.030617156997323036 -0.06873417645692825 -0.02559295855462551 0.005748142022639513 0.00441014114767313 -0.08058592677116394 -0.11475664377212524 -0.01118489820510149 0.055466875433921814 -0.0374789759516716 0.03792376443743706 -0.015226730145514011 0.04784874618053436 -0.04219520092010498 -0.016584787517786026 -0.003399650566279888 0.036472249776124954 2.79182568192482E-4 -0.009349756874144077 -0.062229305505752563 -0.013899070210754871 -0.006620083935558796 -0.029001913964748383 0.053690697997808456 -0.06218688189983368 0.045988187193870544 0.049130458384752274 -0.060306716710329056 0.021014554426074028 0.004531961865723133 0.01700320839881897 6.655007600784302E-4 -0.027515834197402 0.05735842138528824 0.004464640747755766 -0.03547554463148117 -0.05937507003545761 0.06895820051431656 0.05002272501587868 0.00498970365151763 -0.008681355975568295 0.03645699471235275 -0.06354052573442459 -0.007783784065395594 -0.02117331512272358 0.030447857454419136 -0.0035344138741493225 0.04009658843278885 0.06420795619487762 0.0036494703963398933 -0.07432498037815094 0.07570639997720718 0.025111578404903412 -0.01218194980174303 -0.04294406622648239 -0.02775367721915245 -0.036936983466148376 -0.036835189908742905 -0.005415938328951597 -0.018523041158914566 0.026903806254267693 -0.002612794516608119 -0.011139675974845886 -0.08796045929193497 0.014749460853636265 0.002551932819187641 0.013226964510977268 0.002128414111211896 0.007070593535900116 0.04591742157936096 -0.039608653634786606 0.001528552733361721 -0.024934060871601105 0.008712489157915115 0.04241478815674782 -0.06780731678009033 0.05314572528004646 0.002721149241551757 -0.05691731721162796 -0.07937910407781601 0.06625951081514359 -0.05948452278971672 -0.044852349907159805 0.05250709876418114 -0.015531797893345356 -0.04771547392010689 0.03626854345202446 0.0012081244494765997 -0.02748282440006733 -0.06579044461250305 -0.01803969033062458 -0.013709782622754574 0.022250816226005554 -0.0014691081596538424 0.02740291692316532 0.003908901009708643 0.010621262714266777 -0.03133932873606682 0.05587810277938843 -0.13313916325569153 0.012246913276612759 -0.020389128476381302 -0.08643922954797745 0.0014792296569794416 -0.04851273074746132 0.039018139243125916 0.015609778463840485 -0.021940575912594795 -0.10436219722032547 0.023080840706825256 0.016261082142591476 -0.016622837632894516 -0.07602774351835251 9.468523785471916E-5 0.05733739957213402 0.018670301884412766 -0.06995387375354767 -0.12022003531455994 0.028083601966500282 -0.04923364520072937 0.06969620287418365 0.041068047285079956 0.07771989703178406 -0.047754917293787 -0.024708494544029236 0.04936179146170616 0.0010982031235471368 -0.020543547347187996 -0.07905851304531097 0.067231684923172 0.09798532724380493 -0.029082944616675377 -0.061739515513181686 0.02329386956989765 -0.010180257260799408 0.07077287137508392 0.06653614342212677 0.017184311524033546 -0.07147040963172913 0.011678318493068218 -0.02011221833527088 -0.04115045815706253 -0.006673221476376057 0.0623704232275486 -0.004142629913985729 0.05563727021217346 0.015510599128901958 -0.12689998745918274 -0.009496280923485756 0.0575481541454792 -0.02032068371772766 -0.05333133414387703 -0.04201256111264229 0.024522531777620316 -0.09258487075567245 0.0643417239189148 0.028443533927202225 -0.010296996682882309 0.05654636770486832 -0.08335895091295242 0.030340731143951416 0.01223467942327261 -0.010135490447282791 0.037727002054452896 -0.06164952740073204 0.057453662157058716 0.0019292751094326377
냐 -0.002022707602009177 -0.02328984998166561 -0.04115687310695648 -0.028433384373784065 -0.03859245777130127 -0.04633469134569168 0.07495564222335815 -0.013393020257353783 -0.018490994349122047 -0.004736100789159536 0.05720095336437225 0.005905953235924244 0.006876991596072912 -0.04494694247841835 -0.002781693823635578 0.06114538013935089 0.060267530381679535 0.017460495233535767 0.03450203314423561 -0.010906977578997612 0.05118121951818466 6.83535065036267E-4 0.04997553676366806 0.010343885980546474 2.4005325394682586E-4 -0.031248005107045174 0.032004643231630325 0.007658560294657946 0.03970903158187866 0.048691410571336746 -0.008204746060073376 0.016990989446640015 0.033615842461586 0.027907762676477432 -0.0614200085401535 -0.020545633509755135 0.0058675846084952354 -0.0021697767078876495 -0.06932976841926575 -0.10260956734418869 -0.009104159660637379 0.050195153802633286 -0.033426329493522644 0.03881627693772316 -0.010963961482048035 0.0446525402367115 -0.03777503967285156 -0.01719566620886326 -0.0018952552927657962 0.03087504580616951 -1.8272206943947822E-4 -0.004034117329865694 -0.05394231155514717 -0.009011185728013515 -0.0075989472679793835 -0.026209065690636635 0.05052967742085457 -0.04836826026439667 0.03805981203913689 0.04083624482154846 -0.0522104874253273 0.019361400976777077 0.0022021038457751274 0.016776757314801216 0.004281987901777029 -0.0224076546728611 0.04901978000998497 -4.947123234160244E-4 -0.032982051372528076 -0.05547536909580231 0.06206802278757095 0.04513552412390709 6.64046558085829E-4 -0.005121525842696428 0.03132391348481178 -0.05799197778105736 -0.004605441354215145 -0.014706716872751713 0.030104197561740875 -0.006363631226122379 0.03673281893134117 0.05722896009683609 9.574017603881657E-4 -0.06864247471094131 0.06608016788959503 0.024319779127836227 -0.010626505129039288 -0.036393821239471436 -0.024638142436742783 -0.03892716020345688 -0.03199160844087601 -0.005259659141302109 -0.018879933282732964 0.02307802438735962 -0.0030220579355955124 -0.0061521511524915695 -0.0754060447216034 0.015038616955280304 0.0010427149245515466 0.012751057744026184 0.0034136080648750067 0.006697608157992363 0.036712221801280975 -0.03721829131245613 0.005035507492721081 -0.019136538729071617 0.01035146415233612 0.03801160305738449 -0.058488935232162476 0.05052732676267624 0.007467198651283979 -0.0542554035782814 -0.07018887251615524 0.053632885217666626 -0.050295695662498474 -0.0387892946600914 0.042837757617235184 -0.014812075532972813 -0.036470480263233185 0.02954304777085781 -7.640140829607844E-4 -0.02662753313779831 -0.05723446607589722 -0.011832768097519875 -0.014909875579178333 0.023686159402132034 -0.00234691658988595 0.025805039331316948 6.748567684553564E-4 0.008787848986685276 -0.02659677341580391 0.0488588809967041 -0.11488323658704758 0.011898929253220558 -0.018045051023364067 -0.07775801420211792 -0.0016334224492311478 -0.044516757130622864 0.037803273648023605 0.013620036654174328 -0.016947807744145393 -0.08998909592628479 0.019542476162314415 0.015484805218875408 -0.011759529821574688 -0.06850821524858475 -1.2723531108349562E-4 0.048226870596408844 0.017230108380317688 -0.06195196881890297 -0.10585267096757889 0.02589809149503708 -0.04349712282419205 0.059524133801460266 0.0383436344563961 0.06885268539190292 -0.04243854805827141 -0.02526639588177204 0.041712045669555664 0.0012459515128284693 -0.01931481994688511 -0.06938089430332184 0.059663042426109314 0.08724213391542435 -0.027024250477552414 -0.055302828550338745 0.02501613274216652 -0.012945244088768959 0.0642876848578453 0.05941474437713623 0.00988209992647171 -0.06601964682340622 0.011757847853004932 -0.019915875047445297 -0.035666923969984055 -0.005302394274622202 0.05613825097680092 -0.002831533318385482 0.04865344241261482 0.012556346133351326 -0.11132983863353729 -0.007389860227704048 0.04447515308856964 -0.0152365081012249 -0.04858780279755592 -0.03850933164358139 0.023827416822314262 -0.07969442009925842 0.05851181596517563 0.029154131188988686 -0.008085580542683601 0.05675378441810608 -0.07534398883581161 0.03022284060716629 0.007994025014340878 -0.009674949571490288 0.03856481984257698 -0.0557389035820961 0.048357997089624405 -3.216393815819174E-4
에 6.032597739249468E-4 -0.013045642524957657 -0.029566895216703415 -0.01886599138379097 -0.024555277079343796 -0.031168028712272644 0.049307212233543396 -0.006219613831490278 -0.011278005316853523 -0.0017959917895495892 0.036328159272670746 0.0021446028258651495 0.0021727997809648514 -0.030307268723845482 -0.0016762976301833987 0.038639821112155914 0.04188612475991249 0.009318805299699306 0.022046411409974098 -0.006345141213387251 0.03689659386873245 -0.0013527944684028625 0.033841632306575775 0.00719808042049408 -6.141789490357041E-4 -0.023549260571599007 0.021381009370088577 0.006237199530005455 0.025052320212125778 0.028935963287949562 -0.003915125038474798 0.008806449361145496 0.021975623443722725 0.018421243876218796 -0.03731900081038475 -0.014992589130997658 0.003934319131076336 -5.218198930379003E-5 -0.046518970280885696 -0.06830089539289474 -0.005916266702115536 0.03429147228598595 -0.023914208635687828 0.024170072749257088 -0.005392941180616617 0.028068361803889275 -0.02239258959889412 -0.008478437550365925 4.023080109618604E-4 0.02249050885438919 9.794923244044185E-4 -0.004686083644628525 -0.035934384912252426 -0.0073486072942614555 -0.00332426349632442 -0.017658058553934097 0.03209848329424858 -0.03211985528469086 0.023784203454852104 0.028026925399899483 -0.03552328795194626 0.012417582795023918 0.0023340799380093813 0.009144876152276993 2.5954999728128314E-4 -0.013812385499477386 0.030906271189451218 0.0014791566645726562 -0.02104748599231243 -0.03762172535061836 0.039787136018276215 0.032299745827913284 0.002121705561876297 -0.005988044664263725 0.020769620314240456 -0.034919772297143936 -0.0035731203388422728 -0.011119385249912739 0.016918793320655823 -0.0022498727776110172 0.022936061024665833 0.03635613992810249 0.0025778484996408224 -0.04412577301263809 0.04233162850141525 0.013698948547244072 -0.006919459439814091 -0.02631281688809395 -0.013106891885399818 -0.02316315844655037 -0.02216099575161934 -0.003314318135380745 -0.009552127681672573 0.013869725167751312 1.7709659005049616E-4 -0.00566360168159008 -0.04989301413297653 0.006771557964384556 3.44454194419086E-4 0.009209202602505684 0.0043556056916713715 0.004161359742283821 0.024455245584249496 -0.02356870472431183 4.063426167704165E-4 -0.012204555794596672 0.005824844818562269 0.024559415876865387 -0.03710604086518288 0.031590405851602554 0.0054634734988212585 -0.03423487767577171 -0.04768373444676399 0.03802831098437309 -0.034506384283304214 -0.022476956248283386 0.031005552038550377 -0.00962425023317337 -0.023726001381874084 0.019107196480035782 -9.22637467738241E-4 -0.016444750130176544 -0.038297802209854126 -0.008708836510777473 -0.009107179939746857 0.012265300378203392 -3.1780567951500416E-4 0.01610828936100006 0.0010380442254245281 0.004761514253914356 -0.015865933150053024 0.03288792818784714 -0.07726240158081055 0.006076169200241566 -0.011797437444329262 -0.051558129489421844 -5.785536486655474E-4 -0.027599124237895012 0.02431311272084713 0.008421830832958221 -0.012651818804442883 -0.057129137217998505 0.015135961584746838 0.01292841974645853 -0.009485742077231407 -0.04675174504518509 -0.0010187540901824832 0.030215829610824585 0.008201085031032562 -0.040261249989271164 -0.07159709930419922 0.01466186624020338 -0.026177791878581047 0.036309853196144104 0.02392832562327385 0.047164395451545715 -0.030794713646173477 -0.013186080381274223 0.029844526201486588 -3.356565139256418E-4 -0.014642586000263691 -0.04814897105097771 0.04114983230829239 0.057726919651031494 -0.01873674988746643 -0.03594442084431648 0.014322799630463123 -0.004657862242311239 0.0391770601272583 0.03982647508382797 0.00948832742869854 -0.04371993616223335 0.008083224296569824 -0.011942164972424507 -0.024570344015955925 -0.0022724729496985674 0.03790770471096039 -0.0019288604380562901 0.03237675502896309 0.010817778296768665 -0.07215017080307007 -0.003610054263845086 0.032228853553533554 -0.01000325195491314 -0.03419705480337143 -0.02651958540081978 0.016228502616286278 -0.05458802357316017 0.03917670249938965 0.020200680941343307 -0.005588699597865343 0.03736545145511627 -0.05141238123178482 0.017405759543180466 0.007099710404872894 -0.008474872447550297 0.023072149604558945 -0.03556731715798378 0.03239049017429352 -0.0012970074312761426
이야 2.0150572527199984E-4 -0.011419304646551609 -0.025131873786449432 -0.014736632816493511 -0.019951853901147842 -0.027313515543937683 0.042528633028268814 -0.006778190843760967 -0.007073568645864725 0.0010999025544151664 0.027642076835036278 0.0018234055023640394 0.003878607414662838 -0.0247503574937582 4.4633864308707416E-4 0.03323524072766304 0.03320716321468353 0.006445622071623802 0.015555883757770061 -0.005245214328169823 0.027669625356793404 -7.482676301151514E-5 0.025983260944485664 0.005546623840928078 7.252916839206591E-5 -0.01969536393880844 0.01437443308532238 -1.7346917593386024E-4 0.021307945251464844 0.022010384127497673 -0.007424889598041773 0.009945518337190151 0.018197055906057358 0.013170301914215088 -0.02919788658618927 -0.01023716852068901 0.0044283135794103146 0.0022022759076207876 -0.03865472599864006 -0.053229548037052155 -0.0029380666092038155 0.025921395048499107 -0.015290443785488605 0.020757723599672318 -0.008519424125552177 0.020752159878611565 -0.01919149048626423 -0.006370372138917446 -0.0014306663069874048 0.018017370253801346 9.994050487875938E-4 -0.005609224550426006 -0.029825076460838318 -0.0062455288134515285 -0.0036440789699554443 -0.014121110551059246 0.025524714961647987 -0.029857175424695015 0.02270817570388317 0.02420644648373127 -0.0312548391520977 0.012421272695064545 0.004501479212194681 0.011007452383637428 0.002014978090301156 -0.014055381529033184 0.027852797880768776 0.0029073103796690702 -0.017132559791207314 -0.029781118035316467 0.03129205107688904 0.022715408354997635 0.002751988358795643 -0.0033363476395606995 0.015558496117591858 -0.03195321559906006 -0.005022864788770676 -0.008208191953599453 0.011122209951281548 -0.0026607243344187737 0.020076822489500046 0.028794392943382263 0.002649020403623581 -0.03748432174324989 0.034268125891685486 0.014318964444100857 -0.005864505656063557 -0.018206456676125526 -0.010691196657717228 -0.01773812249302864 -0.0161425918340683 -0.00473593408241868 -0.008605590090155602 0.014167547225952148 -9.581546182744205E-4 -0.003328474471345544 -0.04144946485757828 0.005778730381280184 0.001712846220470965 0.006386128254234791 0.002712321700528264 0.00373917818069458 0.02352116070687771 -0.01657821051776409 0.0030738709028810263 -0.012062570080161095 0.0070930831134319305 0.017910979688167572 -0.03230145201086998 0.024075893685221672 0.0016648812452331185 -0.025785725563764572 -0.03937855362892151 0.028803449124097824 -0.027319638058543205 -0.019356410950422287 0.02452515996992588 -0.00839066132903099 -0.023515120148658752 0.015043447725474834 -0.001221077749505639 -0.014215952716767788 -0.030168060213327408 -0.006677297409623861 -0.006443953141570091 0.008839812129735947 4.264308954589069E-4 0.015117744915187359 -0.0011671829270198941 0.00461128493770957 -0.012378682382404804 0.027321841567754745 -0.06254203617572784 0.00610636081546545 -0.011271207593381405 -0.040058303624391556 0.0016095119062811136 -0.02249741554260254 0.016793737187981606 0.005368764977902174 -0.010881027206778526 -0.048830121755599976 0.011783484369516373 0.009868561290204525 -0.008745180442929268 -0.036078691482543945 -0.001431224518455565 0.026384171098470688 0.00735872145742178 -0.029964299872517586 -0.055105239152908325 0.013980682939291 -0.022001810371875763 0.032825663685798645 0.01890282891690731 0.03713502734899521 -0.025946740061044693 -0.009490721859037876 0.020676668733358383 4.124517145100981E-4 -0.012320715934038162 -0.037896573543548584 0.03128225356340408 0.04758753627538681 -0.011377036571502686 -0.025870298966765404 0.009639717638492584 -0.0053231967613101006 0.035258203744888306 0.02792670950293541 0.008321095257997513 -0.032206229865550995 0.007379134185612202 -0.009449571371078491 -0.01834760047495365 1.754332333803177E-4 0.03150218352675438 -0.004989922977983952 0.027948828414082527 0.008706849999725819 -0.05829896032810211 -0.0021522012539207935 0.026315879076719284 -0.009616073220968246 -0.02339150756597519 -0.019549423828721046 0.013355737552046776 -0.04351323843002319 0.03329423815011978 0.013051845133304596 -0.0024494032841175795 0.02792360819876194 -0.04102816805243492 0.014209071174263954 0.006984921172261238 -0.007304247468709946 0.021048206835985184 -0.027330927550792694 0.02973836660385132 5.146186449564993E-4
집 -0.001078491797670722 -0.00803353264927864 -0.019924242049455643 -0.013727029785513878 -0.01682390831410885 -0.01900709979236126 0.03366950526833534 -0.0070778606459498405 -0.0072820899076759815 -8.286641677841544E-4 0.02633524313569069 0.004533637315034866 0.0010650688782334328 -0.018357891589403152 0.0012069299118593335 0.02547813393175602 0.028740810230374336 0.0059249731712043285 0.015999263152480125 -0.00614501116797328 0.02297406643629074 8.156411931850016E-4 0.018890075385570526 0.003256590338423848 -5.043498240411282E-4 -0.01262188795953989 0.015091506764292717 6.479730946011841E-4 0.014081154949963093 0.016912288963794708 -0.004844517447054386 0.007138451561331749 0.013158943504095078 0.010203986428678036 -0.026332464069128036 -0.009028252214193344 6.697502103634179E-4 0.0013426868245005608 -0.02870006114244461 -0.04501482471823692 -0.0030836332589387894 0.022406592965126038 -0.012818841263651848 0.01591767743229866 -0.004470516461879015 0.01918824389576912 -0.01688479818403721 -0.0047939615324139595 -4.299617139622569E-4 0.01576928235590458 -0.0014288099482655525 -0.005119884852319956 -0.025240125134587288 -0.005484881345182657 -0.0025327694602310658 -0.009348543360829353 0.019400425255298615 -0.023881418630480766 0.01749514974653721 0.01865731179714203 -0.025432240217924118 0.010576237924396992 0.001113046077080071 0.007113093510270119 -0.0016877654707059264 -0.009355071000754833 0.019801851361989975 -0.001726633869111538 -0.011727036908268929 -0.021934669464826584 0.024948302656412125 0.021338528022170067 5.333306035026908E-4 -8.382498053833842E-4 0.012624786235392094 -0.021279826760292053 -0.0040677739307284355 -0.009666421450674534 0.011946277692914009 -0.003187891561537981 0.015844371169805527 0.0221057441085577 -0.0018963036127388477 -0.03077993541955948 0.030998749658465385 0.007432295475155115 -0.0033935571555048227 -0.017198150977492332 -0.011648929677903652 -0.013274994678795338 -0.01326573546975851 -0.0018127209041267633 -0.007030812557786703 0.011164315044879913 -0.0021336222998797894 -0.004066058434545994 -0.030710550025105476 0.004604947287589312 8.343851659446955E-4 0.007097357418388128 2.1118781296536326E-4 0.0031420327723026276 0.01842198148369789 -0.016277996823191643 0.0036658893804997206 -0.007831212133169174 0.005020289681851864 0.018425408750772476 -0.028015442192554474 0.0191667340695858 0.0041350629180669785 -0.01988718844950199 -0.028428461402654648 0.024310236796736717 -0.023160696029663086 -0.013926154002547264 0.020215732976794243 -0.004582752473652363 -0.018274672329425812 0.015309705398976803 -0.002081614686176181 -0.011464590206742287 -0.022107357159256935 -0.006646900437772274 -0.007104405667632818 0.011042425408959389 -2.149261999875307E-4 0.008616546168923378 4.2866694275289774E-4 0.005126724485307932 -0.011634494177997112 0.02030736207962036 -0.04943010210990906 0.0023637227714061737 -0.008095899596810341 -0.03265812247991562 0.0025442317128181458 -0.019874881953001022 0.015759490430355072 0.0038693726528435946 -0.006435551214963198 -0.037610433995723724 0.00900951400399208 0.008770952001214027 -0.003454698482528329 -0.027662893757224083 9.934708941727877E-4 0.017928138375282288 0.007549297995865345 -0.026220576837658882 -0.04756804555654526 0.010368198156356812 -0.017308540642261505 0.024830671027302742 0.015357090160250664 0.03062981739640236 -0.017545726150274277 -0.009744557552039623 0.02040226198732853 0.0019775296095758677 -0.010585707612335682 -0.029277650639414787 0.02545083500444889 0.03543786332011223 -0.01308470219373703 -0.025479484349489212 0.009620370343327522 -0.0027155166026204824 0.027102677151560783 0.025672072544693947 0.004471378400921822 -0.03025192953646183 0.005523667670786381 -0.0051908125169575214 -0.016318028792738914 3.4924305509775877E-4 0.02328300103545189 -0.0018651316640898585 0.022124862298369408 0.007136867847293615 -0.049700528383255005 -0.002757803536951542 0.02047172747552395 -0.007539703976362944 -0.018915465101599693 -0.0185861736536026 0.00813758559525013 -0.032471880316734314 0.022637460380792618 0.011288603767752647 -0.0017385727260261774 0.022679613903164864 -0.03312715142965317 0.012384256348013878 0.002819112967699766 -0.006691360846161842 0.0175942350178957 -0.024140961468219757 0.022354748100042343 -8.169372449629009E-4
는 -6.947887013666332E-4 -0.02666272036731243 -0.06135449558496475 -0.03666242957115173 -0.05174659937620163 -0.0629151239991188 0.10332905501127243 -0.014876068569719791 -0.02020997181534767 -0.0026187547482550144 0.0740012675523758 0.00973401591181755 0.00784173421561718 -0.058680374175310135 -7.017697207629681E-4 0.07624427229166031 0.08448734134435654 0.019711934030056 0.042354829609394073 -0.01190678309649229 0.07544490694999695 -2.3293847334571183E-4 0.06547601521015167 0.011019173078238964 0.004727882333099842 -0.04365413263440132 0.04110676795244217 0.0033388440497219563 0.04744363948702812 0.06060050055384636 -0.014631252735853195 0.01841539330780506 0.04281913861632347 0.038506414741277695 -0.08118782937526703 -0.026657193899154663 0.00811733491718769 -0.0022702477872371674 -0.09368395805358887 -0.1391165554523468 -0.008673176169395447 0.06639498472213745 -0.04691440239548683 0.04741574078798294 -0.01940522901713848 0.051786795258522034 -0.05059827119112015 -0.015597074292600155 -0.003691770602017641 0.04784214869141579 0.0015933940885588527 -0.011565761640667915 -0.07422223687171936 -0.016157444566488266 -0.008519571274518967 -0.0366540402173996 0.060442231595516205 -0.07530578225851059 0.0521966926753521 0.06031254678964615 -0.07551217824220657 0.0259222611784935 0.006902352906763554 0.02099171094596386 -7.990631274878979E-4 -0.03461615741252899 0.06643665581941605 0.006297234445810318 -0.0459090955555439 -0.07093284279108047 0.07879892736673355 0.06319719552993774 0.004879356361925602 -0.007104464806616306 0.04275088012218475 -0.07895801961421967 -0.009692820720374584 -0.02356896549463272 0.031940191984176636 -0.007462929002940655 0.05183332413434982 0.07717718929052353 -5.565079627558589E-4 -0.08993943780660629 0.09554818272590637 0.0330786369740963 -0.01864146813750267 -0.05025104805827141 -0.02898285910487175 -0.0462147518992424 -0.04612810164690018 -0.00968149770051241 -0.019620412960648537 0.033264148980379105 -0.003909744787961245 -0.007815306074917316 -0.10391205549240112 0.016093146055936813 0.0039773378521203995 0.01372690498828888 0.00391375832259655 0.0074079567566514015 0.04909316450357437 -0.05039152130484581 0.004841212183237076 -0.030740927904844284 0.014321294613182545 0.05023724213242531 -0.0818307176232338 0.06761682778596878 0.00321889016777277 -0.0668090358376503 -0.09615675359964371 0.0761566087603569 -0.06832778453826904 -0.04792112857103348 0.05736416578292847 -0.016133826225996017 -0.055951185524463654 0.04438597336411476 0.0016052762512117624 -0.029905706644058228 -0.07395591586828232 -0.02021154575049877 -0.017574088647961617 0.029415592551231384 -0.0014340195339173079 0.03284993767738342 -8.442401303909719E-4 0.009345834143459797 -0.03291510045528412 0.0637182891368866 -0.15899451076984406 0.01582365669310093 -0.024317443370819092 -0.10597895085811615 0.0047365035861730576 -0.061346385627985 0.043059781193733215 0.02142779342830181 -0.023794066160917282 -0.12376048415899277 0.03173769265413284 0.019203636795282364 -0.017753930762410164 -0.08778552711009979 -0.0028167800046503544 0.06761252880096436 0.023109136149287224 -0.08295927941799164 -0.14619655907154083 0.03155222535133362 -0.058935604989528656 0.08179661631584167 0.048060208559036255 0.09454511106014252 -0.061189379543066025 -0.03076118789613247 0.05908723548054695 -4.549297736957669E-4 -0.025766005739569664 -0.09780606627464294 0.07825388759374619 0.11866465955972672 -0.03531867265701294 -0.0696980431675911 0.029314612969756126 -0.010819599963724613 0.0858524739742279 0.07775206863880157 0.01986253820359707 -0.08446569740772247 0.01472846232354641 -0.018349556252360344 -0.05002002418041229 -0.003041410818696022 0.07756048440933228 -0.008224612101912498 0.0662141889333725 0.017802882939577103 -0.15181998908519745 -0.00879807397723198 0.06572969257831573 -0.02524854615330696 -0.06529586762189865 -0.04834853857755661 0.0266229510307312 -0.10922788083553314 0.07805375009775162 0.03620808571577072 -0.010523643344640732 0.06942381709814072 -0.10005873441696167 0.041719164699316025 0.013084813952445984 -0.010693440213799477 0.05007263273000717 -0.07193035632371902 0.06750699877738953 0.002861034357920289
에서 5.910026375204325E-4 -0.020497065037488937 -0.03968551382422447 -0.024762555956840515 -0.03405352681875229 -0.04343729093670845 0.07100082188844681 -0.008634038269519806 -0.016302168369293213 -9.624329686630517E-5 0.052418991923332214 0.0022984507959336042 0.005763093940913677 -0.036981046199798584 -7.81496346462518E-4 0.05222957953810692 0.05396232008934021 0.012075874954462051 0.030418813228607178 -0.007611596491187811 0.050634756684303284 0.0024789285380393267 0.04605493322014809 0.00815065298229456 0.0017187774647027254 -0.0303711649030447 0.029126709327101707 0.002582373796030879 0.03200085461139679 0.04044752195477486 -0.009641410782933235 0.014499284327030182 0.02875996194779873 0.022338885813951492 -0.05436314269900322 -0.02025872841477394 0.006527412682771683 7.678552065044641E-4 -0.06351390480995178 -0.09323582053184509 -0.006752350367605686 0.045380741357803345 -0.03031943552196026 0.033666275441646576 -0.01246945746243 0.035422805696725845 -0.03422420471906662 -0.011079926043748856 2.1722904057241976E-4 0.03155770152807236 -0.001292789587751031 -0.007892248220741749 -0.046311479061841965 -0.010303551331162453 -0.008985037915408611 -0.02074725553393364 0.041726257652044296 -0.049634840339422226 0.03309216350317001 0.04084473103284836 -0.050859563052654266 0.018523074686527252 0.0018988061929121614 0.017241062596440315 6.279077497310936E-4 -0.018904032185673714 0.041418783366680145 8.757179602980614E-4 -0.029795687645673752 -0.04955471307039261 0.05315416306257248 0.041288796812295914 0.004052137024700642 -0.0046898615546524525 0.02869308553636074 -0.04852840676903725 -0.0046065011993050575 -0.014894460327923298 0.024194765836000443 -0.003037921153008938 0.03534187749028206 0.05180763825774193 0.002376462798565626 -0.06345376372337341 0.06178274378180504 0.022894367575645447 -0.011031121015548706 -0.03653547540307045 -0.02137010544538498 -0.03449848294258118 -0.028635185211896896 -0.0018796533113345504 -0.012428626418113708 0.02299312688410282 -0.002629511523991823 -0.005206453613936901 -0.06821317225694656 0.012773176655173302 0.003090808168053627 0.009689614176750183 0.0032707613427191973 0.005533277522772551 0.03385342285037041 -0.033072322607040405 0.0017618860583752394 -0.019267769530415535 0.008379765786230564 0.03709080442786217 -0.05206737667322159 0.043102066963911057 0.004335507284849882 -0.04635927826166153 -0.06583999842405319 0.048855260014534 -0.04563151299953461 -0.031964171677827835 0.04161267727613449 -0.013583822175860405 -0.03617863357067108 0.02829846553504467 -0.001625641598366201 -0.02399020455777645 -0.04900823533535004 -0.010936319828033447 -0.016323484480381012 0.021253913640975952 -0.004362754989415407 0.024139510467648506 -0.0011691759573295712 0.00799042172729969 -0.0255417563021183 0.046075720340013504 -0.10595276206731796 0.008594265207648277 -0.01794300228357315 -0.07130369544029236 5.834942567162216E-4 -0.03884692117571831 0.03038632497191429 0.011582352221012115 -0.013463085517287254 -0.08318399637937546 0.017937352880835533 0.014892172068357468 -0.012637857347726822 -0.060080014169216156 -0.0017866309499368072 0.042343877255916595 0.015563638880848885 -0.053905922919511795 -0.09713122993707657 0.019725138321518898 -0.03919253870844841 0.05164623260498047 0.030753515660762787 0.06635026633739471 -0.04149956628680229 -0.018886089324951172 0.03877252712845802 0.00232682004570961 -0.018940502777695656 -0.06584648042917252 0.0519503615796566 0.0802767276763916 -0.023648256435990334 -0.048314567655324936 0.02228022739291191 -0.008854259736835957 0.055367760360240936 0.05263793095946312 0.013672458939254284 -0.05767859145998955 0.010155695490539074 -0.015980977565050125 -0.03269726783037186 -0.002279131207615137 0.054338086396455765 -0.005728134885430336 0.0446823313832283 0.01202934980392456 -0.10025540739297867 -0.007299232762306929 0.042983222752809525 -0.01468983106315136 -0.043769028037786484 -0.03645794838666916 0.01879674568772316 -0.075325146317482 0.05212017521262169 0.02442767284810543 -0.006627152673900127 0.04967609792947769 -0.0654243603348732 0.029136525467038155 0.007593776565045118 -0.00877324491739273 0.0315728522837162 -0.048704713582992554 0.04469306766986847 5.889556487090886E-4
보내 -0.0019112967420369387 -0.0031418874859809875 -0.0030184946954250336 -0.004238849505782127 -0.002232888713479042 -0.0019382683094590902 0.004780564922839403 -0.0015740408562123775 -0.0019987868145108223 0.002029889263212681 0.004577824380248785 -5.27535448782146E-4 -5.4965752497082576E-5 -0.004156847018748522 -0.002481619128957391 0.005681982263922691 0.0030233252327889204 0.0016065590316429734 0.0049849930219352245 -0.001617030124180019 0.005261977203190327 -0.001595296780578792 0.0055885957553982735 -0.001720207859762013 -0.0014978289837017655 -0.0024887165054678917 0.002978562144562602 0.0012008467456325889 0.001152804004959762 0.002389825414866209 -0.0015923082828521729 -0.001179058337584138 0.00224487017840147 0.004688311368227005 -0.0033670009579509497 -0.0037805011961609125 9.536368888802826E-4 0.002014215337112546 -0.006801958195865154 -0.01033942960202694 0.0021305030677467585 0.00408559525385499 -7.356397691182792E-4 0.0029614102095365524 9.043109603226185E-4 0.0017229641089215875 -0.002049083821475506 -0.0012825129088014364 0.0010570125887170434 0.001727293711155653 0.0018610492115840316 -0.0019603280816227198 -0.00558291794732213 -0.0026669586077332497 -0.0014942236011847854 -0.001805041916668415 0.0036715350579470396 -0.001993203302845359 0.005261670332401991 0.004784736782312393 -0.006883934140205383 -2.2890967375133187E-4 -8.461170946247876E-4 0.0034130250569432974 -0.0015982509357854724 -0.0024659517221152782 0.005635622423142195 -4.0867162169888616E-4 -0.0011254095006734133 -0.0026509917806833982 0.0022767833434045315 0.0024005011655390263 0.001676193904131651 -0.0012893617385998368 0.00361773744225502 -0.004426207859069109 0.0011290960246697068 -0.001217576558701694 0.0030502122826874256 5.568329943343997E-4 0.0035368273966014385 0.0042172931134700775 -8.805040270090103E-4 -0.007090095430612564 0.004191286396235228 0.002610469236969948 0.0010867436649277806 -0.0014745407970622182 -0.001165973604656756 -0.0014933173079043627 -0.003636837238445878 -0.001259679556824267 -2.4317801580764353E-4 -5.027608131058514E-4 0.001289685838855803 -0.0016247734893113375 -0.007300499826669693 -0.0014428774593397975 -0.0019419967429712415 0.0024161338806152344 -7.931640720926225E-4 -3.8564944406971335E-4 0.005350314546376467 -0.004528157878667116 -0.001626659999601543 -0.003934192471206188 7.242838619276881E-4 0.0027766861021518707 -0.00349228922277689 0.004812370520085096 0.001776051940396428 -0.005465010181069374 -0.004382667597383261 0.0020808710251003504 -0.005072341300547123 -0.0031087303068488836 0.0033796860370785 2.9568580794148147E-4 -0.004640838596969843 0.0037027543876320124 -4.403959901537746E-4 -0.0022498134057968855 -0.004659418947994709 -3.4254067577421665E-4 -3.2812164863571525E-4 0.0011300976620987058 -4.446336824912578E-4 -1.3808952644467354E-4 0.0017928248271346092 -5.520686390809715E-4 -9.384712320752442E-4 0.003932592924684286 -0.009001316502690315 -0.0013547667767852545 -0.0015048780478537083 -0.008026979863643646 0.0017733771819621325 -0.004297996871173382 0.002190561033785343 3.360045957379043E-4 -0.0028931463602930307 -0.00846821814775467 0.00362417777068913 0.0038743377663195133 2.2711712517775595E-4 -0.0059504155069589615 -6.373216165229678E-4 0.0040073092095553875 0.0016895540757104754 -0.005468093790113926 -0.007916742004454136 0.0013203320559114218 -0.0017443178221583366 0.002946506952866912 0.003146252129226923 0.007419330067932606 -0.001717049046419561 -7.427165401168168E-4 0.005557100288569927 1.1415354674682021E-4 -0.0011760031338781118 -0.007918584160506725 0.0037335956003516912 0.009398582391440868 -4.7828746028244495E-4 -0.004888965282589197 -1.934718748088926E-4 -0.0017919928068295121 0.007234091870486736 0.0034053076524287462 -8.782439981587231E-4 -0.0048996154218912125 0.003106843214482069 -4.235468222759664E-4 -0.004827320110052824 7.683368166908622E-4 0.003768478287383914 -4.0554627776145935E-4 0.0021256005857139826 -7.329983054660261E-4 -0.01164483092725277 0.0012116864090785384 0.005963065195828676 -0.0013545060064643621 -0.003146009286865592 -0.002678688382729888 2.3274053819477558E-4 -0.007507114205509424 0.006994284223765135 6.760369433322921E-5 -0.002221546834334731 0.0036743716336786747 -0.007311390712857246 0.0024665079545229673 0.0011988476617261767 -0.0033844471909105778 0.001382526708766818 -0.0040079024620354176 0.005415086168795824 -0.0019227138254791498
하 -0.0021078663412481546 -0.03791172057390213 -0.0673232302069664 -0.04759924113750458 -0.06421937048435211 -0.07173407077789307 0.12581267952919006 -0.01935887522995472 -0.027912579476833344 -0.0044931210577487946 0.09228037297725677 0.006609295029193163 0.004129792097955942 -0.06998105347156525 0.0017933339113369584 0.09637083113193512 0.09984587877988815 0.02189658395946026 0.05432752147316933 -0.01801052689552307 0.08180028200149536 6.723421975038946E-4 0.07974063605070114 0.015171577222645283 0.004895342048257589 -0.053650740534067154 0.050437550991773605 0.010825305245816708 0.06123139336705208 0.07102174311876297 -0.014401794411242008 0.02336168847978115 0.05282256007194519 0.0417688824236393 -0.09848080575466156 -0.03726726770401001 0.007943332195281982 0.005038916599005461 -0.11179591715335846 -0.1651221215724945 -0.009443218819797039 0.08117560297250748 -0.05085115134716034 0.05579035356640816 -0.01950310915708542 0.0681605413556099 -0.05675962194800377 -0.019771229475736618 -0.001820376142859459 0.05329924449324608 -0.0012314170598983765 -0.00888096820563078 -0.087063267827034 -0.015886086970567703 -0.011352809146046638 -0.041991401463747025 0.07702764868736267 -0.08577899634838104 0.061136722564697266 0.06690876930952072 -0.08904881030321121 0.03653113916516304 0.008985504508018494 0.02950078435242176 5.999591667205095E-4 -0.03404748812317848 0.07563110440969467 0.004499964416027069 -0.04902556166052818 -0.08991159498691559 0.09205897152423859 0.07560998946428299 0.0015271741431206465 -0.006318960338830948 0.0482107512652874 -0.08929826319217682 -0.00892206933349371 -0.025809654965996742 0.04551529139280319 -0.005022608209401369 0.05920588970184326 0.09095975756645203 0.003981467802077532 -0.10701613128185272 0.11144336313009262 0.03874542564153671 -0.01557911466807127 -0.060665808618068695 -0.03945121914148331 -0.0584496334195137 -0.04917101189494133 -0.007871237583458424 -0.02288803830742836 0.032869044691324234 -0.0017800901550799608 -0.009964043274521828 -0.1233401820063591 0.019843237474560738 0.005400413181632757 0.02002711221575737 0.007401668466627598 0.00830991379916668 0.06224662810564041 -0.06366579234600067 0.004700708203017712 -0.032067544758319855 0.015062816441059113 0.060294877737760544 -0.0928080603480339 0.07250446826219559 0.012835001572966576 -0.08560086041688919 -0.11493366956710815 0.08731646090745926 -0.08526258915662766 -0.05885985493659973 0.07090636342763901 -0.025787973776459694 -0.062102701514959335 0.050052110105752945 -1.9188881560694426E-4 -0.03532780706882477 -0.0914602056145668 -0.019829504191875458 -0.02818971313536167 0.033841948956251144 -0.006042347755283117 0.03865373507142067 0.001274369191378355 0.009277105331420898 -0.04396982491016388 0.07709261775016785 -0.1891358196735382 0.016944153234362602 -0.030076470226049423 -0.12547394633293152 0.004585451912134886 -0.0720139667391777 0.05656164512038231 0.018141617998480797 -0.027082066982984543 -0.14634078741073608 0.03452323004603386 0.02834116481244564 -0.021835070103406906 -0.10763609409332275 6.224507815204561E-4 0.07580932974815369 0.024569207802414894 -0.09662795066833496 -0.16875672340393066 0.04075118154287338 -0.06792626529932022 0.0940379649400711 0.05446889251470566 0.11512498557567596 -0.0724041685461998 -0.03207484632730484 0.0649414211511612 0.0029448599088937044 -0.03588974103331566 -0.11358637362718582 0.09712684154510498 0.13751059770584106 -0.040741290897130966 -0.08473532646894455 0.03678751736879349 -0.015074320137500763 0.09998924285173416 0.09382699429988861 0.021892117336392403 -0.10549429059028625 0.018082283437252045 -0.02780960686504841 -0.053351204842329025 -0.007259858772158623 0.09327768534421921 -0.008608161471784115 0.07772531360387802 0.020553860813379288 -0.1814904659986496 -0.012467151507735252 0.07630985975265503 -0.026617083698511124 -0.08351501077413559 -0.06461342424154282 0.03233625739812851 -0.12906955182552338 0.09422880411148071 0.049400076270103455 -0.009692822583019733 0.08868966996669769 -0.12168264389038086 0.04511211812496185 0.013915205374360085 -0.017306644469499588 0.057594891637563705 -0.08511453866958618 0.08309324085712433 -0.0022664968855679035
수 -0.002270149067044258 -0.007388085126876831 -0.016795290634036064 -0.012265317142009735 -0.01419286709278822 -0.016263160854578018 0.029707621783018112 -0.003649568883702159 -0.007142433896660805 -0.0035303528420627117 0.01874658651649952 0.0027996820863336325 0.0033590453676879406 -0.017117850482463837 8.276611333712935E-4 0.021925106644630432 0.02167568914592266 0.006096730940043926 0.011453487910330296 -0.0012717164354398847 0.019874468445777893 0.001652328297495842 0.018556557595729828 0.005317512433975935 0.0011041221441701055 -0.009369228966534138 0.01314171776175499 0.0026100105606019497 0.012788254767656326 0.015397505834698677 -0.00437500374391675 0.0066763414070010185 0.011475895531475544 0.01084658969193697 -0.02216285839676857 -0.0056455740705132484 0.002096292097121477 -0.0024120628368109465 -0.023776667192578316 -0.03777942806482315 -0.002544553717598319 0.017338981851935387 -0.009858575649559498 0.013934189453721046 -0.006527135148644447 0.013076345436275005 -0.010290616191923618 -0.0032204766757786274 0.0018577832961454988 0.009624969214200974 -0.0018204031512141228 -0.0015527018113061786 -0.01719210110604763 -0.0048355902545154095 -0.004486653953790665 -0.011312851682305336 0.01939065381884575 -0.021422039717435837 0.016251007094979286 0.01418207585811615 -0.020534317940473557 0.009322931058704853 0.0011305734515190125 0.007342067081481218 6.329892203211784E-4 -0.010015411302447319 0.017173172906041145 1.3016794400755316E-4 -0.01282557100057602 -0.02064528502523899 0.02352713979780674 0.015415925532579422 0.0035888173151761293 -0.0024401990231126547 0.010234056040644646 -0.02136167511343956 -0.0016426675720140338 -0.007714192382991314 0.012072239071130753 -0.0016895339358597994 0.01426603365689516 0.017826374620199203 0.0012428660411387682 -0.02307102642953396 0.024559887126088142 0.0076485550962388515 -0.0022969432175159454 -0.01263034250587225 -0.009911415167152882 -0.011233559809625149 -0.0131412697955966 -0.0018212684663012624 -0.007461197208613157 0.008008848875761032 0.0018691668519750237 -0.0011795090977102518 -0.02709164470434189 0.0030516297556459904 0.0012233261950314045 0.00638720765709877 5.731979035772383E-4 0.0011035047937184572 0.015389280393719673 -0.013716457411646843 4.827238153666258E-4 -0.005760616157203913 0.001613761531189084 0.011795906350016594 -0.020869189873337746 0.018984731286764145 0.0019354993710294366 -0.01925227791070938 -0.024626022204756737 0.01992143504321575 -0.020434081554412842 -0.011286594904959202 0.01653219759464264 -0.00461611757054925 -0.011452958919107914 0.009590237401425838 -0.0014687724178656936 -0.006726185791194439 -0.01939510740339756 -0.0048349760472774506 -0.008195179514586926 0.007680836599320173 -0.0016647814773023129 0.00798720307648182 6.790439365431666E-4 0.001857647323049605 -0.011741681024432182 0.01974473148584366 -0.03923383355140686 0.0031115461606532335 -0.006471649277955294 -0.02569998800754547 0.00276484084315598 -0.017410771921277046 0.013829253613948822 0.006210064049810171 -0.006410809699445963 -0.03194259852170944 0.009300691075623035 0.004884299356490374 -0.00668696453794837 -0.023707212880253792 -0.0022415188141167164 0.016609640792012215 0.006063517648726702 -0.01977737434208393 -0.03895607218146324 0.006721926853060722 -0.014928596094250679 0.023259468376636505 0.013991067185997963 0.026394154876470566 -0.014838860370218754 -0.009706919081509113 0.013153872452676296 -0.0014152326621115208 -0.006010495126247406 -0.023822229355573654 0.021528493613004684 0.030831148847937584 -0.008765904232859612 -0.018758557736873627 0.006426508538424969 -0.001992042176425457 0.020282184705138206 0.019546840339899063 0.003446184564381838 -0.02065526321530342 0.0029834748711436987 -0.008946412242949009 -0.010558106005191803 0.0015650616260245442 0.022774582728743553 -0.0018954589031636715 0.016874466091394424 0.006894249003380537 -0.03946346044540405 -0.0032515120692551136 0.017698094248771667 -0.006977719720453024 -0.016468126326799393 -0.016564495861530304 0.006027235183864832 -0.030050404369831085 0.01997799426317215 0.009060372598469257 -0.0012527022045105696 0.0219019316136837 -0.027735421434044838 0.00931890495121479 0.003562637371942401 -0.0055328854359686375 0.014296391978859901 -0.017070017755031586 0.016257580369710922 0.0016310961218550801
나 -7.895981070760172E-6 -3.4016408608295023E-4 -0.002305144676938653 -0.004707625601440668 -0.004997252486646175 -0.004601388704031706 0.007783303968608379 -0.0036516289692372084 -0.001250839326530695 7.563724648207426E-5 0.0031004517804831266 -0.0010194057831540704 -1.7110549379140139E-4 -0.0031598161440342665 7.720758731011301E-5 0.005377915687859058 0.00692750746384263 -2.719657204579562E-4 1.676041429163888E-4 7.460604538209736E-4 0.005803097505122423 0.0011243768967688084 0.0032390353735536337 4.7087427810765803E-4 0.0013495420571416616 -0.001174185425043106 0.00360479555092752 -0.0014125496381893754 0.0022140401415526867 0.006139941979199648 -0.002395401708781719 0.0032330970279872417 0.0018076804699376225 0.001299660885706544 -0.004016419406980276 -0.0016549332067370415 8.56621831189841E-4 -0.0017736033769324422 -0.005120341200381517 -0.008812929503619671 -6.235870532691479E-4 0.005139109678566456 -0.0025933056604117155 0.004192959051579237 5.212716641835868E-4 0.0025947357062250376 -0.003870423650369048 -0.0033298025373369455 -6.667544366791844E-4 0.0020580231212079525 7.261218270286918E-4 -5.561578436754644E-4 -0.0060690646059811115 0.0012799407122656703 4.5368069550022483E-4 -0.002305244328454137 0.0027808838058263063 -0.0070683956146240234 0.0036087275948375463 0.005170098971575499 -0.004010023083537817 0.0011410212609916925 -0.0021217530593276024 0.0022137644700706005 0.0023586282040923834 -0.003381781280040741 0.0048078857362270355 4.8732166760601103E-4 -0.005394433159381151 -0.006941227708011866 0.004426342435181141 0.0028249621391296387 0.002266140189021826 -0.0024530254304409027 8.430096786469221E-4 -0.00325840525329113 9.277325589209795E-4 -0.0017356808530166745 0.0018276667688041925 0.0012182407081127167 0.004508384969085455 0.0048608323559165 -0.0012864834861829877 -0.004693822003901005 0.004670852329581976 0.004128261003643274 -0.001332892687059939 -0.0020028797443956137 -0.004427423235028982 -0.0028685929719358683 -0.003112772013992071 0.0014368779957294464 -0.003653098363429308 0.0013782535679638386 3.392313083168119E-4 0.001612077234312892 -0.004695982672274113 0.0020637938287109137 0.0024262063670903444 7.681087590754032E-4 -3.815937670879066E-4 0.00210114405490458 0.005245467647910118 -0.004342950414866209 0.003454107791185379 -9.227413829648867E-5 0.0014070799807086587 0.004622574429959059 -0.005131078884005547 0.0018848772160708904 -0.0010735439136624336 -0.003130900440737605 -0.007634197361767292 0.00309635023586452 -0.003263759193941951 -0.005353436339646578 0.0037779463455080986 -0.002904102671891451 -0.002969618421047926 0.0015251096338033676 0.002478274516761303 -0.0040435162372887135 -0.006546946242451668 -0.003240738995373249 -0.0026400901842862368 0.001181367551907897 0.0013579913647845387 0.0012116481084376574 -0.001792020513676107 0.001340012066066265 -0.00290471944026649 0.0038160583935678005 -0.008186573162674904 -1.9681745470734313E-5 -1.9577896455302835E-4 -0.005433000158518553 6.522731273435056E-4 -0.002578282728791237 0.004331345669925213 0.004017611499875784 -0.0014143147272989154 -0.005944342352449894 0.0015841519925743341 -3.9401257527060807E-4 -0.0016956412000581622 -0.0065725077874958515 5.693453713320196E-4 0.0028416102286428213 0.0042902883142232895 -0.00789655838161707 -0.009250689297914505 0.0026360887568444014 -0.0030222770292311907 0.007099112030118704 0.004644409287720919 0.005105836782604456 -0.0020479848608374596 -0.004049619659781456 0.0025770990177989006 0.0020337002351880074 2.4121905153151602E-4 -0.005811987444758415 0.004661036189645529 0.006469705142080784 -0.002934066578745842 -0.005974230822175741 0.004109831061214209 -9.028551721712574E-5 0.005682858172804117 0.004537160508334637 0.003496859222650528 -0.005823406856507063 2.9335744329728186E-5 -0.003444578731432557 -0.00424621719866991 0.0011885379208251834 0.007703220471739769 3.5285891499370337E-4 0.003014951478689909 -0.0012149574467912316 -0.01116455439478159 -0.0023675612173974514 0.0024594038259238005 -0.0026763486675918102 -0.005887195002287626 -0.005897396244108677 -8.670605020597577E-4 -0.006434109061956406 0.005021233577281237 0.0048325988464057446 6.300152163021266E-4 0.007643251679837704 -0.005508240777999163 0.0024938115384429693 3.5291528911329806E-4 -0.0019017427694052458 0.005294935777783394 -0.006275121122598648 0.003469658549875021 7.1615882916376E-4
